tree
version=v4
num_class=1
num_tree_per_iteration=1
label_index=0
max_feature_idx=5
objective=regression
feature_names=monthly_income_usd monthly_expenses_usd monthly_emi_usd savings_usd expenses_to_income savings_to_income
feature_infos=[500:12404.049999999999] [150.00999999999999:9463.8700000000008] [0:47723.839999999997] [635.96000000000004:1237774.3899999999] [0.3000063008645808:0.89998764489668048] [1.2002704101220185:119.99655229200864]
tree_sizes=2847 2848 2840 2856 2857 2838 2855 2852 2854 2858 2865 2860 2861 2853 2848 2861 2852 2849 2866 2847 2863 2839 2865 2838 2859 2857 2827 2847 2868 2847 2660 2846 2862 2682 2847 2820 2831 2845 2665 2835 2748 2574 2658 2593 2331 2658 2554 2317 2719 2145 2245 2308 2054 2363 2311 2589 2193 2631 2510 2192 2296 2192 1846 2241 2151 2497 1901 1780 1817 1823 2220 2045 1874 1840 1817 2053 2356 2017 2323 1862 2043 1638 1823 1976 1954 1467 1879 2238 1366 1631 2736 1881 2384 2652 2116 2519 2187 1778 2755 2045

Tree=0
num_leaves=31
num_cat=0
split_feature=2 2 2 2 2 2 2 0 4 2 2 2 2 2 2 4 0 4 0 0 4 2 2 2 2 2 2 2 2 2
split_gain=7.42725e+11 1.46918e+11 1.21594e+11 1.74046e+10 1.54956e+10 1.28392e+10 9.81607e+09 6.52559e+09 5.91426e+09 3.02305e+09 2.36445e+09 1.86946e+09 1.67953e+09 1.65194e+09 1.46901e+09 1.16492e+09 9.03298e+08 7.57769e+08 5.71169e+08 4.97124e+08 4.84701e+08 3.99707e+08 3.86537e+08 3.43084e+08 3.41463e+08 3.131e+08 3.07213e+08 2.80038e+08 1.86013e+08 1.27659e+08
threshold=11711.395000000002 3310.1250000000005 25758.810000000005 6639.670000000001 18078.945000000003 34959.125000000007 1153.6700000000003 4022.7750000000005 0.59971487235196508 9056.345000000003 14821.330000000002 4844.420000000001 21956.250000000004 41158.725000000006 31130.455000000005 0.62665200366447771 4101.3150000000014 0.59266638815748196 3965.9200000000005 3871.1200000000003 0.59010687176611298 38365.220000000008 12960.51 28040.875000000004 2483.9450000000002 19887.425000000003 10377.915000000003 16251.930000000002 23964.275000000005 43867.530000000006
decision_type=2 2 2 2 2 2 2 2 2 2 2 2 2 2 2 2 2 2 2 2 2 2 2 2 2 2 2 2 2 2
left_child=1 6 4 11 10 14 7 15 -9 19 22 18 25 21 23 -1 24 -18 -3 -5 -13 -7 -2 -4 -8 -6 -11 -12 -14 -15
right_child=2 3 5 9 12 13 16 8 -10 26 27 20 28 29 -16 -17 17 -19 -20 -21 -22 -23 -24 -25 -26 -27 -28 -29 -30 -31
leaf_value=-1201.0187405117354 -2399.2608299919557 -1640.4895194056471 -3838.7560200147418 -2011.5862899427204 -3064.6298145704059 -4836.7334272413045 -1411.6610225541058 -1026.1035889622099 -1194.144675111598 -2136.619434951911 -2729.852359858492 -1675.9575739255733 -3454.2100979769812 -5425.0082319288049 -4448.0405821892209 -1275.2431422895111 -1243.3722392265151 -1406.7529345521907 -1512.4527006955313 -1881.7955124056925 -1799.9053594991906 -5152.8452289991174 -2567.1447054700643 -4131.6230610303674 -1522.2511987003779 -3262.4619276075155 -2258.6073831332315 -2897.195668452242 -3651.0671015577109 -5677.6530268506795
leaf_weight=4644 240 686 80 544 160 80 758 4168 4210 484 200 582 120 40 120 3882 548 589 708 645 689 80 320 80 442 160 360 200 80 40
leaf_count=4644 240 686 80 544 160 80 758 4168 4210 484 200 582 120 40 120 3882 548 589 708 645 689 80 320 80 442 160 360 200 80 40
internal_value=-1476.86 -1322.19 -3328.16 -1823.55 -2865.98 -4643.59 -1199.78 -1173.22 -1110.55 -2043.92 -2627.83 -1655.44 -3305.63 -5180.3 -4183.55 -1234.81 -1391.88 -1328.01 -1575.46 -1941.18 -1743.15 -4994.79 -2495.19 -3985.19 -1452.4 -3163.55 -2188.65 -2813.52 -3532.95 -5551.33
internal_weight=25939 23939 2000 4698 1480 520 19241 16904 8378 2033 960 2665 520 240 280 8526 2337 1137 1394 1189 1271 160 560 160 1200 320 844 400 200 80
internal_count=25939 23939 2000 4698 1480 520 19241 16904 8378 2033 960 2665 520 240 280 8526 2337 1137 1394 1189 1271 160 560 160 1200 320 844 400 200 80
is_linear=0
shrinkage=1


Tree=1
num_leaves=31
num_cat=0
split_feature=2 2 2 2 2 2 2 0 4 2 2 0 2 2 2 2 4 0 4 2 4 0 2 2 2 4 2 2 2 2
split_gain=6.01607e+11 1.1924e+11 9.84909e+10 1.25514e+10 1.17345e+10 1.1151e+10 1.03997e+10 5.50193e+09 4.52337e+09 2.03715e+09 1.91982e+09 1.43256e+09 1.36272e+09 1.36042e+09 1.2056e+09 1.15757e+09 8.24382e+08 7.09058e+08 6.16238e+08 4.22847e+08 3.46907e+08 3.35166e+08 2.8844e+08 2.62913e+08 2.58573e+08 2.56895e+08 2.53611e+08 2.02091e+08 1.53223e+08 1.50671e+08
threshold=11711.395000000002 3763.3700000000003 25758.810000000005 18078.945000000003 7598.7450000000008 1393.8150000000003 34959.125000000007 4399.5650000000014 0.62432513053191385 5749.4350000000004 14604.645000000002 2629.8900000000008 40009.255000000012 21956.250000000004 29660.760000000006 9363.4450000000015 0.59971487235196508 4674.4250000000011 0.61773390072036483 2610.2950000000005 0.58782093017907466 4003.4650000000006 16251.930000000002 43867.530000000006 13424.205000000002 0.62204930108557166 19887.425000000003 32355.485000000004 36485.270000000011 23964.275000000005
decision_type=2 2 2 2 2 2 2 2 2 2 2 2 2 2 2 2 2 2 2 2 2 2 2 2 2 2 2 2 2 2
left_child=1 5 3 10 9 7 14 11 -9 18 24 -1 28 26 -4 20 17 -7 -3 -18 -6 -11 -12 -14 -2 -17 -5 -16 -8 -15
right_child=2 4 6 13 15 16 12 8 -10 21 22 -13 23 29 27 25 19 -19 -20 -21 -22 -23 -24 -25 -26 -27 -28 -29 -30 -31
leaf_value=179.23312098706953 -850.04222076416011 -87.015693497996523 -2196.4198909505208 -1428.9910369873048 -411.09995313951043 47.660436638611117 -2935.0078955078129 411.42654067084533 252.15477632211656 -378.63508309642981 -1115.6955106608073 256.03422715517735 -3466.7178295898443 -1779.6131681315103 -2503.3390283203125 -602.79375193564181 47.489632719548453 205.81431535993303 -209.61781338953298 -65.145404034046507 -544.7882780500986 -268.58493399791581 -1278.3003850097657 -3780.712138671875 -994.98718310546883 -722.60560961174247 -1607.0398553466798 -2728.111579589844 -3174.7135302734378 -1956.7846093749999
leaf_weight=4192 320 827 120 160 367 752 40 3896 3288 551 240 5774 80 120 80 391 692 455 813 643 412 556 200 40 200 330 160 80 80 80
leaf_count=4192 320 827 120 160 367 752 40 3896 3288 551 240 5774 80 120 80 391 692 455 813 643 412 556 200 40 200 330 160 80 80 80
internal_value=3.85442e-07 139.201 -1666.16 -1250.2 -341.375 242.847 -2850.06 271.819 338.53 -218.545 -1035.87 223.729 -3333.1 -1645.89 -2436.02 -566.319 47.3881 107.279 -147.793 -6.7608 -481.805 -323.361 -1189.61 -3571.38 -905.79 -657.631 -1518.02 -2615.73 -3094.81 -1850.48
internal_weight=25939 23939 2000 1480 4247 19692 520 17150 7184 2747 960 9966 240 520 280 1500 2542 1207 1640 1335 779 1107 440 120 520 721 320 160 120 200
internal_count=25939 23939 2000 1480 4247 19692 520 17150 7184 2747 960 9966 240 520 280 1500 2542 1207 1640 1335 779 1107 440 120 520 721 320 160 120 200
is_linear=0
shrinkage=0.1


Tree=2
num_leaves=31
num_cat=0
split_feature=2 2 2 2 2 2 2 4 0 2 2 2 0 2 2 2 2 0 0 0 4 0 0 2 2 2 2 0 2 2
split_gain=4.87339e+11 1.008e+11 7.61422e+10 1.05593e+10 1.03356e+10 9.4137e+09 6.8695e+09 4.55021e+09 4.02985e+09 1.52264e+09 1.48806e+09 1.29733e+09 1.09376e+09 9.92661e+08 9.89869e+08 8.30763e+08 7.2514e+08 4.82494e+08 4.12073e+08 3.97572e+08 3.68166e+08 3.48466e+08 2.73944e+08 2.32852e+08 2.16759e+08 2.01141e+08 1.61117e+08 1.49273e+08 1.08721e+08 8.7386e+07
threshold=12071.620000000001 4004.3550000000005 26719.825000000004 18599.025000000005 1393.8150000000003 7746.0550000000012 36485.270000000011 0.57588022521482685 3485.0300000000002 15345.645000000002 5802.4300000000012 22438.580000000005 4418.545000000001 9732.9400000000023 31130.455000000005 2571.6350000000007 41158.725000000006 3734.7000000000003 3463.6450000000004 4101.3150000000014 0.57588022521482685 5150.0100000000011 4022.7750000000005 13649.775000000001 33378.795000000006 20366.285000000003 24826.315000000006 3907.3000000000006 28040.875000000004 38365.220000000008
decision_type=2 2 2 2 2 2 2 2 2 2 2 2 2 2 2 2 2 2 2 2 2 2 2 2 2 2 2 2 2 2
left_child=1 4 3 9 7 10 14 8 -1 23 17 25 -9 21 28 19 29 -3 -17 -6 -12 -7 -15 -2 -16 -5 -13 -11 -4 -8
right_child=2 5 6 11 15 13 16 12 -10 27 20 26 -14 22 24 18 -18 -19 -20 -21 -22 -23 -24 -25 -26 -27 -28 -29 -30 -31
leaf_value=212.78877379322967 -798.28633963448669 -209.9899757508401 -1952.3802343750003 -1325.5347125244143 38.507494069590713 -495.38026473629435 -2795.2893798828127 168.56405064491793 359.1630547296665 -1186.6050196329752 -233.34736069528068 -1656.1990527343751 238.17451347257912 -684.74576150310531 -2350.5396972656249 -83.178511134636267 -3304.6504663085939 -95.092750108860173 26.434347401387683 148.60545340930025 -347.78223711339439 -352.03373082478845 -557.51208536447575 -927.25259940011165 -2583.3267846679687 -1484.098992919922 -1839.409587402344 -1057.5317429315478 -2154.2969189453124 -2976.3135205078124
leaf_weight=3130 280 666 40 160 660 578 40 5458 4713 192 492 120 3849 317 80 567 80 810 868 652 656 240 363 280 80 160 80 168 80 80
leaf_count=3130 280 666 40 160 660 578 40 5458 4713 192 492 120 3849 317 80 567 80 810 868 652 656 240 363 280 80 160 80 168 80 80
internal_value=9.86716e-07 122.55 -1533.08 -1169.5 215.792 -327.533 -2623.83 244.637 300.748 -965.918 -213.35 -1529.69 197.352 -527.543 -2304.1 35.7075 -3071.44 -146.937 -16.8761 93.2208 -298.739 -453.323 -616.825 -862.769 -2466.93 -1404.82 -1729.48 -1126.37 -2086.99 -2915.97
internal_weight=25939 24019 1920 1440 19897 4122 480 17150 7843 920 2624 520 9307 1498 280 2747 200 1476 1435 1312 1148 818 680 560 160 320 200 360 120 120
internal_count=25939 24019 1920 1440 19897 4122 480 17150 7843 920 2624 520 9307 1498 280 2747 200 1476 1435 1312 1148 818 680 560 160 320 200 360 120 120
is_linear=0
shrinkage=0.1


Tree=3
num_leaves=31
num_cat=0
split_feature=2 2 2 2 2 2 2 4 0 2 2 2 2 2 4 0 2 4 0 0 4 4 2 4 2 2 2 2 2 4
split_gain=3.94883e+11 7.83525e+10 6.46269e+10 9.52537e+09 9.23792e+09 5.5643e+09 5.53532e+09 3.7497e+09 3.79314e+09 1.37224e+09 1.25807e+09 1.23512e+09 1.22462e+09 8.01794e+08 7.19779e+08 5.90897e+08 5.87363e+08 4.80349e+08 3.92652e+08 3.70253e+08 3.18286e+08 3.09628e+08 3.07947e+08 2.14799e+08 1.92052e+08 1.76777e+08 1.75575e+08 1.64754e+08 8.8064e+07 7.72887e+07
threshold=11711.395000000002 3351.8700000000003 26719.825000000004 18078.945000000003 7069.3350000000009 36485.270000000011 757.8950000000001 0.67067538788065673 4840.7800000000016 5091.5100000000011 14821.330000000002 8672.590000000002 21956.250000000004 31130.455000000005 0.60841762951388412 3634.7050000000004 41158.725000000006 0.62432513053191385 5150.0100000000011 3809.4950000000003 0.62204930108557166 0.50114855616009069 2083.8100000000004 0.59971487235196508 24826.315000000006 16703.400000000005 33378.795000000006 19887.425000000003 28040.875000000004 0.54765782903293736
decision_type=2 2 2 2 2 2 2 2 2 2 2 2 2 2 2 2 2 2 2 2 2 2 2 2 2 2 2 2 2 2
left_child=1 6 3 10 9 13 7 8 -1 17 23 21 27 28 15 -8 29 -3 -11 -9 -13 -6 -16 -2 -14 -12 -15 -5 -4 -7
right_child=2 4 5 12 11 16 14 19 -10 18 25 20 24 26 22 -17 -18 -19 -20 -21 -22 -23 -24 -25 -26 -27 -28 -29 -30 -31
leaf_value=217.69637987909073 -680.33993011802761 -26.710692535638813 -1757.1421679687501 -1158.3831417846679 -248.09739588480147 -2520.7672222222227 46.154540452391416 137.70689034457155 346.84592796823978 -252.4975964713567 -920.41544047037769 -455.74866128080339 -1465.7060314941407 -2115.4856933593751 67.778077605067026 177.02039484065364 -2974.1853466796874 -137.80258626849795 -128.69059834155792 186.21603598887884 -568.62565736332397 -382.86426052259992 -25.768847548169209 -804.20657980705073 -1655.4685717773439 -1056.1146789550783 -2324.9941674804686 -1301.8901440429688 -1938.8672326660155 -2686.5394661458336
leaf_weight=6691 279 800 40 160 252 45 590 2967 3445 963 240 551 160 80 716 831 80 758 349 3350 457 527 692 281 80 160 80 160 80 75
leaf_count=6691 279 800 40 160 252 45 590 2967 3445 963 240 551 160 80 716 831 80 758 349 3350 457 527 692 281 80 160 80 160 80 75
internal_value=-3.03347e-08 112.777 -1349.88 -1030.44 -255.349 -2361.44 201.687 223.904 261.591 -144.213 -839.245 -433.839 -1358.2 -2073.69 72.4751 122.685 -2764.3 -80.7593 -219.564 163.432 -506.924 -339.268 21.8019 -742.494 -1528.96 -974.695 -2220.24 -1230.14 -1878.29 -2624.37
internal_weight=25939 23939 2000 1520 4657 480 19282 16453 10136 2870 960 1787 560 280 2829 1421 200 1558 1312 6317 1008 779 1408 560 240 400 160 320 120 120
internal_count=25939 23939 2000 1520 4657 480 19282 16453 10136 2870 960 1787 560 280 2829 1421 200 1558 1312 6317 1008 779 1408 560 240 400 160 320 120 120
is_linear=0
shrinkage=0.1


Tree=4
num_leaves=31
num_cat=0
split_feature=2 2 2 2 2 2 4 0 2 2 0 0 2 2 2 2 2 0 0 4 0 0 0 0 0 2 2 0 2 2
split_gain=3.20229e+11 5.85877e+10 5.70551e+10 7.50068e+09 7.17363e+09 6.6242e+09 3.74632e+09 2.83846e+09 2.1699e+09 1.3736e+09 1.30408e+09 1.05952e+09 9.87693e+08 9.15432e+08 8.52379e+08 7.49713e+08 6.98008e+08 3.78452e+08 3.66431e+08 3.49198e+08 3.37336e+08 3.10748e+08 2.43672e+08 2.08493e+08 2.00692e+08 1.66022e+08 1.39446e+08 1.30804e+08 1.06561e+08 1.04377e+08
threshold=11097.210000000001 2992.3100000000009 24826.315000000006 6116.1900000000014 17058.590000000004 34959.125000000007 0.50114855616009069 3113.2150000000006 647.16000000000008 8397.8000000000011 5786.8000000000011 3616.7950000000005 13424.205000000002 29660.760000000006 20366.285000000003 40009.255000000012 4471.9650000000011 1644.1250000000002 5214.380000000001 0.47492754256836456 4496.5600000000004 4530.8300000000008 5129.3900000000003 4696.0800000000008 4306.9250000000011 43867.530000000006 22438.580000000005 6176.9850000000015 28040.875000000004 32355.485000000004
decision_type=2 2 2 2 2 2 2 2 2 2 2 2 2 2 2 2 2 2 2 2 2 2 2 2 2 2 2 2 2 2
left_child=1 6 4 16 12 13 7 17 11 19 -9 -8 23 28 27 -7 20 -1 -18 -5 -3 -11 -10 -2 -14 -17 -16 -6 -4 -15
right_child=2 3 5 9 14 15 8 10 22 21 -12 -13 24 29 26 25 18 -19 -20 -21 -22 -23 -24 -25 -26 -27 -28 -29 -30 -31
leaf_value=96.888310924966561 -643.31309257433259 -81.931767636893198 -1520.4238444010416 -183.7801391141555 -1050.4665351418887 -2254.9273258463541 134.45267880026108 261.30704728606764 26.208529019743448 -475.43791306408667 385.83318860539106 197.55583630819365 -847.04153629392897 -1825.0456726074219 -1201.4046859741211 -2525.2408569335939 -176.84004489960211 185.41521573802024 -55.654657705228708 -302.91914349159498 18.530578775157174 -360.04119266412204 108.65076219117925 -505.69071680258588 -721.51473131393641 -2774.7572558593752 -1344.008562825521 -871.41386718750005 -1708.8921044921874 -1986.5831616210937
leaf_weight=774 309 838 120 340 272 120 4641 3086 1230 581 1156 6236 297 80 160 80 930 1284 341 890 556 390 506 171 223 40 120 48 40 80
leaf_count=774 309 838 120 340 272 120 4641 3086 1230 581 1156 6236 297 80 160 80 930 1284 341 890 556 390 506 171 223 40 120 48 40 80
internal_value=-1.14876e-06 105.897 -1165.8 -203.56 -861.742 -2034.53 185.515 248.489 154.061 -340.177 295.242 170.631 -697.726 -1736.68 -1135.1 -2431.67 -90.7299 152.121 -144.327 -269.986 -41.8621 -429.089 50.2384 -594.285 -793.21 -2608.41 -1262.52 -1023.61 -1567.54 -1905.81
internal_weight=25939 23779 2160 4866 1600 560 18913 6300 12613 2201 4242 10877 1000 320 600 240 2665 2058 1271 1230 1394 971 1736 480 520 120 280 320 160 160
internal_count=25939 23779 2160 4866 1600 560 18913 6300 12613 2201 4242 10877 1000 320 600 240 2665 2058 1271 1230 1394 971 1736 480 520 120 280 320 160 160
is_linear=0
shrinkage=0.1


Tree=5
num_leaves=31
num_cat=0
split_feature=2 2 2 2 2 2 4 0 0 2 2 2 2 2 4 4 2 0 2 4 0 4 0 4 2 2 2 0 2 2
split_gain=2.59449e+11 4.98747e+10 4.37915e+10 6.90408e+09 5.43837e+09 5.3656e+09 3.17636e+09 3.08681e+09 1.34534e+09 9.68796e+08 9.55942e+08 8.09503e+08 8.06629e+08 7.415e+08 7.35897e+08 6.20809e+08 6.07268e+08 5.4854e+08 4.23387e+08 2.8492e+08 2.7775e+08 2.71492e+08 1.98131e+08 1.73076e+08 1.47225e+08 1.34478e+08 1.05387e+08 1.02226e+08 8.63142e+07 8.45458e+07
threshold=10540.220000000001 24826.315000000006 2893.7400000000002 16703.400000000005 6116.1900000000014 34959.125000000007 0.67800041388393473 5129.3900000000003 2338.6300000000006 12960.51 616.1450000000001 19887.425000000003 8190.670000000001 29660.760000000006 0.45300880159314072 0.52832700743133565 40009.255000000012 4191.1900000000014 4277.0500000000002 0.80154357930878384 3401.2300000000005 0.6108069117689422 3714.1500000000001 0.53817214436789795 22438.580000000005 43867.530000000006 1879.2900000000002 4320.3350000000009 28040.875000000004 32355.485000000004
decision_type=2 2 2 2 2 2 2 2 2 2 2 2 2 2 2 2 2 2 2 2 2 2 2 2 2 2 2 2 2 2
left_child=2 3 6 9 15 13 7 8 -1 22 19 27 21 28 -9 17 -7 -4 -17 -8 -14 -6 -2 -11 -13 -18 -12 -5 -3 -15
right_child=1 5 4 11 12 16 10 14 -10 23 26 24 20 29 -16 18 25 -19 -20 -21 -22 -23 -24 -25 -26 -27 -28 -29 -30 -31
leaf_value=102.78162504677523 -573.27570446220182 -1368.3814762369793 -83.85344669599516 -944.7758979674968 -188.74752221697213 -2029.4345540364584 149.12443068031129 335.33424301147465 192.04440346829131 -620.42939032976028 50.557286826074126 -1069.5004729003906 -436.0798213092275 -1642.5410937500001 241.20552293588787 -63.368206410265579 -2272.7168334960938 65.051739692606645 -160.65247802601067 105.61859723756639 -321.15923620354829 -286.01767450181887 -453.14152648351785 -734.73930692368663 -1209.6076839192708 -2497.2814746093754 -17.264054418914021 -830.09045446869141 -1538.0028466796875 -1787.9248522949219
leaf_weight=2348 241 120 538 187 566 120 3283 1400 6011 215 510 200 339 80 2042 862 80 458 930 2780 554 582 319 345 120 40 416 133 40 80
leaf_count=2348 241 120 538 187 566 120 3283 1400 6011 215 510 200 339 80 2042 862 80 458 930 2780 554 582 319 345 120 40 416 133 40 80
internal_value=4.60764e-07 -1009.1 99.1202 -747.567 -169.475 -1831.08 168.149 199.79 166.971 -597.847 114.723 -1009.58 -293.506 -1563.01 279.491 -78.6763 -2188.5 -15.381 -113.856 129.176 -364.785 -238.06 -504.842 -690.852 -1122.04 -2347.57 20.089 -897.11 -1410.79 -1715.23
internal_weight=25939 2320 23619 1760 4829 560 18790 11801 8359 1120 6989 640 2041 320 3442 2788 240 996 1792 6063 893 1148 560 560 320 120 926 320 160 160
internal_count=25939 2320 23619 1760 4829 560 18790 11801 8359 1120 6989 640 2041 320 3442 2788 240 996 1792 6063 893 1148 560 560 320 120 926 320 160 160
is_linear=0
shrinkage=0.1


Tree=6
num_leaves=31
num_cat=0
split_feature=2 2 2 2 2 2 2 4 0 2 0 2 2 0 2 4 2 2 0 0 0 4 4 2 4 4 0 2 4 4
split_gain=2.10225e+11 4.36518e+10 3.27683e+10 4.98532e+09 4.58949e+09 4.0608e+09 3.01773e+09 2.42797e+09 1.90035e+09 8.09035e+08 7.52572e+08 5.90341e+08 5.41488e+08 4.90786e+08 4.35727e+08 4.35569e+08 4.12738e+08 3.16753e+08 2.74874e+08 2.72116e+08 2.56893e+08 1.7048e+08 1.61944e+08 1.39747e+08 1.2398e+08 1.06438e+08 1.03906e+08 8.72835e+07 6.74032e+07 5.66239e+07
threshold=12071.620000000001 4004.3550000000005 26719.825000000004 1189.3550000000002 18979.655000000002 7598.7450000000008 36485.270000000011 0.53319996218730803 3597.5600000000004 15345.645000000002 5442.2900000000009 5579.880000000001 9732.9400000000023 3239.1100000000006 22438.580000000005 0.71488793713012078 31130.455000000005 41158.725000000006 3634.7050000000004 3094.6100000000006 4057.7150000000006 0.48464782424583713 0.44474732501031561 2342.5150000000003 0.50623484167761157 0.58051905247323121 3828.7600000000007 33378.795000000006 0.50114855616009069 0.54765782903293736
decision_type=2 2 2 2 2 2 2 2 2 2 2 2 2 2 2 2 2 2 2 2 2 2 2 2 2 2 2 2 2 2
left_child=1 3 4 7 9 11 16 8 -1 21 -9 18 20 23 25 -15 28 29 -3 -13 -7 -2 -14 -5 -11 -6 -16 -18 -4 -8
right_child=2 5 6 13 14 12 17 10 -10 24 -12 19 22 15 26 -17 27 -19 -20 -21 -22 -23 -24 -25 -26 -27 -28 -29 -30 -31
leaf_value=147.30007594516857 -483.41267738126766 -143.57822250718547 -1273.5982693142362 8.3144643971422223 -877.35738944171999 -342.26500804721036 -1827.6997699652777 117.82806995380473 256.36102941810833 -670.08885280402137 181.4337262179167 -254.10044191252689 -326.3587238311768 84.200727596395907 -1210.1455691073804 -18.867418186496568 -1541.8323730468751 -2173.2669873046875 -51.100181281105066 -154.13893026571228 -235.3447805707905 -602.0836099410493 -437.77932320246623 -65.523536252010828 -789.19281379727863 -1000.6961210664336 -1065.7287523953421 -1689.5512768554688 -1428.4065338541668 -1969.5903932291667
leaf_weight=2761 177 563 45 455 137 466 45 7965 3792 129 2427 407 176 1314 94 596 80 80 749 823 434 383 504 587 271 143 106 80 75 75
leaf_count=2761 177 563 45 455 137 466 45 7965 3792 129 2427 407 176 1314 94 596 80 80 749 823 434 383 504 587 271 143 106 80 75 75
internal_value=5.67639e-07 80.4893 -1006.91 141.849 -768.398 -215.696 -1722.46 162.742 210.41 -642.161 132.683 -137.444 -341.592 21.9226 -1020.87 52.0391 -1510.55 -2019.14 -90.784 -187.216 -290.706 -564.575 -408.941 -33.2814 -750.782 -940.348 -1133.6 -1615.69 -1370.35 -1916.38
internal_weight=25939 24019 1920 19897 1440 4122 480 16945 6553 960 10392 2542 1580 2952 480 1910 280 200 1312 1230 900 560 680 1042 400 280 200 160 120 120
internal_count=25939 24019 1920 19897 1440 4122 480 16945 6553 960 10392 2542 1580 2952 480 1910 280 200 1312 1230 900 560 680 1042 400 280 200 160 120 120
is_linear=0
shrinkage=0.1


Tree=7
num_leaves=31
num_cat=0
split_feature=2 2 2 2 2 2 4 0 0 2 2 2 2 4 0 4 2 2 4 2 4 0 4 4 0 0 0 0 2 2
split_gain=1.70428e+11 3.12886e+10 3.0352e+10 4.35996e+09 4.17712e+09 2.94512e+09 2.27676e+09 2.29908e+09 1.1091e+09 6.12039e+08 5.88526e+08 5.85006e+08 5.6669e+08 5.58868e+08 5.85922e+08 5.37471e+08 5.08629e+08 2.5657e+08 2.5071e+08 2.43595e+08 2.02234e+08 1.88309e+08 1.87775e+08 1.36046e+08 1.31069e+08 1.03517e+08 8.33224e+07 7.85243e+07 6.87905e+07 4.85528e+07
threshold=11097.210000000001 2893.7400000000002 25758.810000000005 17058.590000000004 6450.1350000000011 36485.270000000011 0.69413416523934046 5418.795000000001 2445.3450000000007 20850.625000000004 8672.590000000002 440.95500000000004 14157.830000000002 0.66812820840627318 3094.6100000000006 0.46052037925592787 31130.455000000005 41158.725000000006 0.67534419332332241 4422.2450000000008 0.45300880159314072 5174.5300000000016 0.80900792807293798 0.42646866072239437 5174.5300000000016 5757.0850000000009 4136.6500000000005 5564.3700000000008 1916.1600000000001 38365.220000000008
decision_type=2 2 2 2 2 2 2 2 2 2 2 2 2 2 2 2 2 2 2 2 2 2 2 2 2 2 2 2 2 2
left_child=1 6 3 12 13 16 7 8 -1 25 18 22 21 14 -3 -9 27 29 -6 -15 -12 -2 -8 -11 -14 -5 -18 -4 -13 -7
right_child=2 4 5 9 10 17 11 15 -10 23 20 28 24 19 -16 -17 26 -19 -20 -21 -22 -23 -24 -25 -26 -27 -28 -29 -30 -31
leaf_value=82.521028082175604 -480.84654736658786 -115.48856163781154 -1237.0023071289063 -783.07967760013969 -172.52682372678157 -1634.7869482421875 117.70171093396735 289.97493720861951 158.95742038779414 -832.20320213428442 -239.57156247881665 36.887736866364129 -637.07639270742595 -77.105487288250686 5.9491303340231969 203.26148226290775 -1523.6294545368976 -1955.940330810547 -267.89069193964423 -166.71831056653207 -350.02399612868334 -353.39081335128498 80.838974171798057 -993.95740359337981 -509.93106246543141 -646.84578096693849 -1379.1997247869319 -1061.8636337280275 -18.854590643296774 -1769.7213659667971
leaf_weight=2651 443 599 128 291 688 40 2989 1199 6686 69 226 558 287 593 1180 1770 83 80 460 621 622 157 2570 211 113 69 77 32 367 80
leaf_count=2651 443 599 128 291 688 40 2989 1199 6686 69 226 558 287 593 1180 1770 83 80 460 621 622 157 2570 211 113 69 77 32 367 80
internal_value=1.49818e-08 77.2546 -850.48 -639.4 -145.36 -1516.19 136.362 161.629 137.255 -843.212 -257.408 88.4069 -508.961 -70.6359 -34.9397 238.28 -1328.05 -1817.22 -210.739 -122.945 -320.587 -447.496 100.66 -954.097 -601.158 -756.968 -1454.12 -1201.97 14.7716 -1724.74
internal_weight=25939 23779 2160 1640 4989 520 18790 12306 9337 640 1996 6484 1000 2993 1779 2969 320 200 1148 1214 848 600 5559 280 400 360 160 160 925 120
internal_count=25939 23779 2160 1640 4989 520 18790 12306 9337 640 1996 6484 1000 2993 1779 2969 320 200 1148 1214 848 600 5559 280 400 360 160 160 925 120
is_linear=0
shrinkage=0.1


Tree=8
num_leaves=31
num_cat=0
split_feature=2 2 2 2 2 2 0 4 4 0 2 0 2 2 2 2 2 2 4 0 0 0 0 4 0 0 2 4 4 0
split_gain=1.38184e+11 2.65581e+10 2.34986e+10 3.68919e+09 3.24176e+09 2.86086e+09 1.89366e+09 1.92216e+09 8.08847e+08 7.05662e+08 5.62728e+08 4.8624e+08 4.64437e+08 4.42021e+08 3.95628e+08 3.95164e+08 3.49651e+08 3.28228e+08 2.92947e+08 2.52339e+08 2.32021e+08 2.09743e+08 1.43616e+08 1.37733e+08 1.16323e+08 9.66358e+07 8.70371e+07 6.95364e+07 6.59994e+07 5.59106e+07
threshold=10540.220000000001 24826.315000000006 2571.6350000000007 15997.730000000001 6004.7250000000013 34959.125000000007 2985.9950000000003 0.47741906481812474 0.75066850834093857 6414.3700000000008 19478.455000000005 5615.7500000000009 8098.3950000000013 440.95500000000004 29660.760000000006 12755.355000000001 4471.9650000000011 40009.255000000012 0.60173160192494046 1485.4100000000001 3775.0350000000003 3133.8450000000003 4382.4750000000013 0.67296776739699704 3828.7600000000007 3463.6450000000004 43867.530000000006 0.6108069117689422 0.58051905247323121 5591.7000000000016
decision_type=2 2 2 2 2 2 2 2 2 2 2 2 2 2 2 2 2 2 2 2 2 2 2 2 2 2 2 2 2 2
left_child=2 3 6 15 11 14 13 9 -9 -8 25 16 20 19 27 23 -4 29 -13 -1 -6 -14 -17 -2 -12 -5 -19 -3 -16 -7
right_child=1 5 4 10 12 17 7 8 -10 -11 24 18 21 -15 28 22 -18 26 -20 -21 -22 -23 -24 -25 -26 -27 -28 -29 -30 -31
leaf_value=55.874976902283152 -325.87993778915182 -968.17092682594489 -39.752051640188938 -690.1031483255374 -219.64958789576974 -1511.7382605350379 187.41680851289334 143.38778346121475 80.879401951812341 305.59515533193377 -871.55497283935551 97.028406139367675 -330.69078907342009 4.1143699554547872 -1185.8525866386219 -531.41887958855034 -117.75344646331257 -1653.9701843261719 -39.572550797688812 103.7916746519582 -130.63605488609002 -230.29877212466059 -424.91353418192733 -433.91917596469267 -757.15955871582037 -585.62572310123539 -1834.6326464843751 -1100.3920515730576 -1314.344521722561 -1332.0952706473215
leaf_weight=1664 339 86 1457 157 522 99 3172 5856 3202 601 160 312 313 730 78 302 949 80 316 3237 667 621 218 181 200 203 40 74 82 21
leaf_count=1664 339 86 1457 157 522 99 3172 5856 3202 601 160 312 313 730 78 302 949 80 316 3237 667 621 218 181 200 203 40 74 82 21
internal_value=-6.65368e-07 -736.442 72.3377 -545.592 -116.388 -1336.26 125.055 146.271 121.291 206.241 -719.596 -50.0655 -211.17 76.7098 -1140.51 -425.127 -70.5182 -1597.25 28.2929 87.5229 -169.715 -263.942 -486.769 -363.486 -808.002 -631.189 -1714.19 -1029.32 -1251.7 -1480.3
internal_weight=25939 2320 23619 1760 5157 560 18462 12831 9058 3773 720 3034 2123 5631 320 1040 2406 240 628 4901 1189 934 520 520 360 360 120 160 160 120
internal_count=25939 2320 23619 1760 5157 560 18462 12831 9058 3773 720 3034 2123 5631 320 1040 2406 240 628 4901 1189 934 520 520 360 360 120 160 160 120
is_linear=0
shrinkage=0.1


Tree=9
num_leaves=31
num_cat=0
split_feature=2 2 2 2 2 2 0 4 4 0 2 2 2 0 0 2 4 2 2 4 2 4 4 0 4 0 2 4 0 0
split_gain=1.11958e+11 2.19494e+10 1.8775e+10 2.93779e+09 2.74618e+09 2.70941e+09 1.63679e+09 9.8329e+08 7.39365e+08 5.02276e+08 4.42435e+08 4.13195e+08 4.10017e+08 3.90569e+08 3.48733e+08 3.48483e+08 3.28273e+08 3.01368e+08 2.98985e+08 2.46461e+08 2.27645e+08 2.26792e+08 2.01048e+08 1.23821e+08 1.14474e+08 1.05309e+08 1.04822e+08 9.15233e+07 7.14809e+07 6.86705e+07
threshold=10377.915000000003 23964.275000000005 2182.0200000000004 5579.880000000001 15653.885000000002 33378.795000000006 5174.5300000000016 0.55644683560240671 0.50849179718282278 1932.1850000000002 8098.3950000000013 18979.655000000002 38365.220000000008 5643.3700000000008 6771.6150000000007 405.39000000000004 0.75815999900428166 28040.875000000004 12547.580000000002 0.46304731035031471 4277.0500000000002 0.54989352437990446 0.60841762951388412 2829.6900000000001 0.59971487235196508 4039.7300000000005 43867.530000000006 0.49900511094340483 5081.8100000000013 5921.005000000001
decision_type=2 2 2 2 2 2 2 2 2 2 2 2 2 2 2 2 2 2 2 2 2 2 2 2 2 2 2 2 2 2
left_child=2 4 6 13 18 17 8 14 9 -1 19 27 28 20 -8 -10 -9 29 23 -5 -4 -15 -12 -2 -20 -13 -14 -6 -7 -3
right_child=1 5 3 10 11 12 7 16 15 -11 22 25 26 21 -16 -17 -18 -19 24 -21 -22 -23 -24 -25 -26 -27 -28 -29 -30 -31
leaf_value=64.781344062033156 -399.54404212688581 -914.0065660782443 -28.852351667363919 -76.483198811864725 -478.92556291546737 -1317.9781367658134 190.64577285381927 154.04752982028799 86.324199107983105 146.89108104635369 -188.3876392097973 -756.23629903590427 -1464.2447493489583 107.54771811512281 281.62531443119877 21.2478818753595 85.808698691669008 -1077.2728424072266 -378.21097093119056 -169.70297693599832 -92.360628164248794 -11.381590942091544 -283.26070117075511 -290.72652608439131 -472.25088675047948 -647.9579324411792 -1651.1693652343752 -587.31751381478659 -1150.8514727618244 -743.94328781654099
leaf_weight=945 145 131 1676 383 114 83 1547 1713 7586 3520 458 188 120 265 579 923 1198 160 243 1093 851 406 436 375 277 172 40 246 37 29
leaf_count=945 145 131 1676 383 114 83 1547 1713 7586 3520 458 188 120 265 579 923 1198 160 243 1093 851 406 436 375 277 172 40 246 37 29
internal_value=5.10307e-08 -656.685 65.727 -94.7625 -478.622 -1179 115.341 163.723 96.5579 129.513 -179.14 -628.748 -1406.18 -32.2315 215.423 79.2652 125.964 -980.228 -374.688 -145.514 -50.2396 35.5875 -234.657 -321.07 -428.305 -704.503 -1510.98 -552.993 -1266.45 -883.183
internal_weight=25939 2360 23579 5568 1760 600 18011 5037 12974 4465 2370 720 280 3198 2126 8509 2911 320 1040 1476 2527 671 894 520 520 360 160 360 120 160
internal_count=25939 2360 23579 5568 1760 600 18011 5037 12974 4465 2370 720 280 3198 2126 8509 2911 320 1040 1476 2527 671 894 520 520 360 160 360 120 160
is_linear=0
shrinkage=0.1


Tree=10
num_leaves=31
num_cat=0
split_feature=2 2 2 2 2 2 0 4 0 4 0 4 2 0 4 2 2 4 2 4 0 2 4 0 2 2 2 4 0 0
split_gain=9.06858e+10 1.7779e+10 1.52214e+10 2.43968e+09 2.22824e+09 2.19462e+09 1.36813e+09 8.32857e+08 7.20121e+08 6.46709e+08 4.2886e+08 3.86298e+08 3.76847e+08 3.56497e+08 3.77158e+08 3.32114e+08 2.95069e+08 2.47945e+08 2.44108e+08 2.11149e+08 2.43053e+08 1.34729e+08 1.03835e+08 8.75651e+07 8.49062e+07 7.11887e+07 7.02944e+07 6.49481e+07 5.91226e+07 5.73553e+07
threshold=10377.915000000003 23964.275000000005 2115.7400000000002 5528.9400000000014 15345.645000000002 33378.795000000006 5866.1550000000007 0.71055585399162091 2121.0350000000003 0.70596591692544231 4944.9550000000008 0.54069707443420845 18979.655000000002 2526.5750000000003 0.72448692722035768 38365.220000000008 7427.8400000000011 0.41012035300284294 28040.875000000004 0.67296776739699704 3069.9550000000004 260.24500000000006 0.59266638815748196 3674.3950000000004 43867.530000000006 3955.5600000000009 13649.775000000001 0.81859693886117946 6209.2200000000003 5103.9950000000008
decision_type=2 2 2 2 2 2 2 2 2 2 2 2 2 2 2 2 2 2 2 2 2 2 2 2 2 2 2 2 2 2
left_child=2 4 6 13 19 18 7 8 -1 17 16 -12 23 25 -15 28 -5 -8 -3 20 -2 -9 -14 -6 -17 -4 -21 -11 -7 -20
right_child=1 5 3 10 12 15 9 21 -10 27 11 -13 22 14 -16 24 -18 -19 29 26 -22 -23 -24 -25 -26 -27 -28 -29 -30 -31
leaf_value=55.450308818525926 -387.20507909189359 -794.86433609008793 -62.228406115234044 -146.3465183024648 -540.51927360108664 -1171.1933876953124 252.1368921151433 63.122413635253906 121.46304379219721 122.39278918926533 -8.8685658886473071 -154.10195414501689 -580.64479906282384 16.364378927516338 -67.984110936217419 -1317.820291341146 -231.36574355190243 175.16022557788847 -1007.5779279742325 -363.88029084979365 -253.81886762245009 9.9275037469588625 -688.05788751527587 -446.93254310344832 -1486.0524633789064 -125.36191709431169 -458.67187412021394 70.897473144119303 -982.8491015625001 -875.2914476477581
leaf_weight=2080 202 160 429 809 197 100 579 4200 8041 520 295 483 181 1742 762 120 824 1509 114 265 422 537 179 203 40 306 111 463 20 46
leaf_count=2080 202 160 429 809 197 100 579 4200 8041 520 295 483 181 1742 762 120 824 1509 114 265 422 537 179 203 40 306 111 463 20 46
internal_value=-1.44953e-07 -591.017 59.1543 -83.9719 -430.759 -1061.1 104.258 91.6992 107.897 165.019 -160.136 -99.0327 -559.827 -27.2781 -9.30397 -1265.56 -189.247 196.506 -882.205 -332.668 -296.998 57.0921 -634.053 -493.024 -1359.88 -88.5126 -391.864 98.1381 -1139.8 -969.546
internal_weight=25939 2360 23579 5650 1760 600 17929 14858 10121 3071 2411 778 760 3239 2504 280 1633 2088 320 1000 624 4737 360 400 160 735 376 983 120 160
internal_count=25939 2360 23579 5650 1760 600 17929 14858 10121 3071 2411 778 760 3239 2504 280 1633 2088 320 1000 624 4737 360 400 160 735 376 983 120 160
is_linear=0
shrinkage=0.1


Tree=11
num_leaves=31
num_cat=0
split_feature=2 2 2 2 2 2 4 2 0 0 4 0 0 0 2 4 2 2 4 2 2 2 0 4 0 0 2 4 4 0
split_gain=7.36316e+10 1.58073e+10 1.11731e+10 2.16149e+09 1.52088e+09 1.47058e+09 1.11976e+09 1.05746e+09 5.85244e+08 5.54805e+08 3.19235e+08 3.57447e+08 2.96405e+08 2.89393e+08 2.54504e+08 2.27008e+08 1.77309e+08 1.72009e+08 1.58358e+08 1.46224e+08 1.40416e+08 1.21015e+08 8.59106e+07 7.75472e+07 7.61886e+07 7.38633e+07 6.43508e+07 5.63552e+07 4.94442e+07 4.55115e+07
threshold=12249.565000000002 4004.3550000000005 26719.825000000004 511.96000000000009 18078.945000000003 7523.3950000000013 0.44767529059751771 36485.270000000011 3848.1950000000006 3239.1100000000006 0.6806349767026888 4268.755000000001 5591.7000000000016 5035.295000000001 21956.250000000004 0.51344651575780975 9622.135000000002 14604.645000000002 0.44474732501031561 32355.485000000004 1760.6550000000002 41158.725000000006 5174.5300000000016 0.54765782903293736 4362.5800000000008 3714.1500000000001 5468.8100000000004 0.49416948556257184 0.50623484167761157 6209.2200000000003
decision_type=2 2 2 2 2 2 2 2 2 2 2 2 2 2 2 2 2 2 2 2 2 2 2 2 2 2 2 2 2 2
left_child=1 3 4 6 17 10 8 19 -1 -8 11 -3 16 20 25 -14 -7 24 -15 27 -5 -9 -19 -16 -2 -6 -12 -4 -23 -21
right_child=2 5 7 13 14 12 9 21 -10 -11 26 -13 15 18 23 -17 -18 22 -20 29 -22 28 -24 -25 -26 -27 -28 -29 -30 -31
leaf_value=104.86579404818386 -364.74115566237151 -96.485110098830972 -752.33197694975752 27.189476904480518 -580.71199369494548 -191.09674447340774 56.19508432082953 -1131.1705200195313 182.16836485517786 100.78239652882536 -100.60110505739848 0.72175804654932241 -23.07695607384332 121.04858122401768 -598.78511491530014 -185.07845802848519 -265.34291070059015 -444.45747703269672 35.714704148082049 -1009.4523016747007 -21.338518274538846 -1176.6536038912261 -344.16963832460601 -713.92363632531487 -276.3872703439385 -484.39605245311361 -152.14341694650474 -875.78822571997557 -1344.5027868200232 -859.96620905949521
leaf_weight=1824 231 851 58 948 149 692 4310 120 2115 7917 480 681 139 288 101 229 601 324 888 94 1607 26 116 139 169 171 489 102 54 26
leaf_count=1824 231 851 58 948 149 692 4310 120 2115 7917 480 681 139 288 101 229 601 324 888 94 1607 26 116 139 169 171 489 102 54 26
internal_value=-3.11211e-08 47.0973 -602.72 84.1694 -459.974 -130.131 100.003 -1019.06 146.373 85.0654 -81.6889 -53.275 -203.071 15.5619 -587.626 -123.888 -225.607 -374.872 56.6128 -893.619 -3.33283 -1194.68 -418.018 -665.47 -327.412 -529.243 -126.612 -831.035 -1289.95 -977.064
internal_weight=25939 24059 1880 19897 1400 4162 16166 480 3939 12227 2501 1532 1661 3731 560 368 1293 840 1176 280 2555 200 440 240 400 320 969 160 80 120
internal_count=25939 24059 1880 19897 1400 4162 16166 480 3939 12227 2501 1532 1661 3731 560 368 1293 840 1176 280 2555 200 440 240 400 320 969 160 80 120
is_linear=0
shrinkage=0.1


Tree=12
num_leaves=31
num_cat=0
split_feature=2 2 2 2 2 2 2 4 0 4 0 4 2 0 0 2 2 2 0 4 4 4 4 4 4 0 4 4 2 0
split_gain=5.96465e+10 1.13131e+10 1.03837e+10 1.48168e+09 1.37342e+09 1.18978e+09 1.04012e+09 9.83594e+08 9.29278e+08 3.33619e+08 2.62193e+08 3.12902e+08 2.22863e+08 2.17744e+08 2.11128e+08 2.10352e+08 1.527e+08 1.26378e+08 1.20934e+08 1.14878e+08 1.07473e+08 9.79131e+07 8.45325e+07 8.01824e+07 7.39636e+07 5.93219e+07 5.54633e+07 4.86905e+07 4.60548e+07 4.20673e+07
threshold=11237.660000000002 3494.3400000000006 25758.810000000005 17417.950000000001 440.95500000000004 6718.6750000000002 34959.125000000007 0.69875096763682454 6086.8250000000007 0.47741906481812474 2673.9150000000004 0.59266638815748196 13946.195000000002 2939.5350000000003 6058.1600000000008 21433.885000000006 40009.255000000012 29660.760000000006 1862.5750000000003 0.76758264512789043 0.82750946770681655 0.41209065809353412 0.63835948637505124 0.3664856457674473 0.59492992290252522 4460.7050000000008 0.73598909470718765 0.66599389804042997 8894.5150000000012 4362.5800000000008
decision_type=2 2 2 2 2 2 2 2 2 2 2 2 2 2 2 2 2 2 2 2 2 2 2 2 2 2 2 2 2 2
left_child=1 4 3 12 7 9 17 8 -1 13 28 -12 21 -3 18 24 -8 29 -6 -11 -9 -2 -14 -17 -5 -18 -16 -19 -7 -4
right_child=2 5 6 15 14 10 16 20 -10 19 11 -13 22 -15 26 23 25 27 -20 -21 -22 -23 -24 -25 -26 -27 -28 -29 -30 -31
leaf_value=95.608864863229186 -180.33304982101708 -82.560669652732884 -738.88714051177544 -414.41150429261563 -38.051521453241982 -197.53718256835938 -969.49373209635417 66.480959108170424 179.08281233208498 -60.119736373458707 -90.716077781581191 -184.58896435167509 -317.13028458722937 37.650626629533122 96.711049683403431 -413.04505803034857 -1189.4717532835145 -782.1435910692403 17.973460677604034 -113.76763042237667 37.437711536364482 -285.21641618700454 -401.20422708967089 -599.0187646028038 -505.13428566993321 -1047.2425809972426 19.283520068018891 -896.89765288254318 -261.8292983932875 -619.11572504978562
leaf_weight=9089 114 213 69 187 461 250 120 3391 1563 1221 695 726 254 515 393 26 69 102 2346 593 2041 406 226 214 173 51 121 58 201 51
leaf_count=9089 114 213 69 187 461 250 120 3391 1563 1221 695 726 254 515 393 26 69 102 2346 593 2041 406 226 214 173 51 121 58 201 51
internal_value=2.83979e-08 45.24 -508.288 -382.12 78.1091 -99.2608 -896.498 90.1979 107.857 -54.7072 -159.76 -138.676 -307.579 2.47891 19.5618 -506.354 -1049.26 -765.56 8.77235 -77.6573 55.5684 -262.223 -356.715 -578.872 -458.009 -1129.02 78.4839 -823.742 -226.191 -687.984
internal_weight=25939 23819 2120 1600 19405 4414 520 16084 10652 2542 1872 1421 1000 728 3321 600 240 280 2807 1814 5432 520 480 240 360 120 514 160 451 120
internal_count=25939 23819 2120 1600 19405 4414 520 16084 10652 2542 1872 1421 1000 728 3321 600 240 280 2807 1814 5432 520 480 240 360 120 514 160 451 120
is_linear=0
shrinkage=0.1


Tree=13
num_leaves=31
num_cat=0
split_feature=2 2 2 2 2 2 0 4 0 0 4 4 2 0 4 0 4 2 0 2 0 4 2 4 2 0 4 0 0 0
split_gain=4.84152e+10 9.78042e+09 7.87664e+09 1.317e+09 1.26865e+09 1.17142e+09 9.1627e+08 8.68544e+08 4.86933e+08 3.08418e+08 3.13127e+08 2.45432e+08 1.82738e+08 1.77739e+08 1.92621e+08 1.77271e+08 1.69705e+08 1.60369e+08 1.43487e+08 1.25889e+08 1.1206e+08 1.04994e+08 8.84559e+07 7.40995e+07 6.3709e+07 5.66512e+07 5.6397e+07 5.21045e+07 4.23037e+07 4.10846e+07
threshold=10126.190000000002 23964.275000000005 1956.1400000000001 5177.3950000000013 15997.730000000001 33378.795000000006 2985.9950000000003 0.6450876580504451 6832.1250000000009 2718.6700000000005 0.70596591692544231 0.46528860165975139 38365.220000000008 3965.9200000000005 0.6155397723180579 1203.4200000000003 0.7899969147949647 20366.285000000003 6024.4150000000009 28040.875000000004 5757.0850000000009 0.56075931537712653 13649.775000000001 0.59010687176611298 7222.1150000000007 3828.7600000000007 0.41696205409393877 6058.1600000000008 5081.8100000000013 5103.9950000000008
decision_type=2 2 2 2 2 2 2 2 2 2 2 2 2 2 2 2 2 2 2 2 2 2 2 2 2 2 2 2 2 2
left_child=2 4 6 11 13 19 15 8 -8 24 -11 18 28 22 -15 -1 -9 23 -4 27 -13 -17 -2 -6 -5 -19 -14 -3 -7 -21
right_child=1 5 3 9 17 12 7 16 -10 10 -12 20 26 14 -16 21 -18 25 -20 29 -22 -23 -24 -25 -26 -27 -28 -29 -30 -31
leaf_value=12.49197323241434 -259.14629294802717 -606.29499766791048 13.6946693131655 -140.03028759942538 -340.63575646624588 -870.31668451148346 105.75454778331368 77.296870629461807 190.38027011340685 -62.374037169753024 -148.54339982174233 -42.270490374519916 -883.73391791449649 -155.11161017104004 -268.44592562294679 72.352253276456608 41.131677313939583 -536.23341933241841 126.28057078043619 -738.79067896792776 12.759800828174079 39.602407563244483 -344.19554382661431 -422.7184563743694 -202.13008548002514 -438.7897225786549 -1025.9097735005041 -451.6063232421875 -741.74661370354738 -626.82930059018349
leaf_weight=1430 377 134 701 345 217 83 6313 2914 762 1288 627 1859 36 319 283 1701 2339 111 135 114 462 2306 181 223 317 129 124 26 37 46
leaf_count=1430 377 134 701 345 217 83 6313 2914 762 1288 627 1859 36 319 283 1701 2339 111 135 114 462 2306 181 223 317 129 124 26 37 46
internal_value=-6.15265e-08 -423.979 44.0235 -57.8825 -309.651 -774.583 76.9156 91.9978 114.869 -110.927 -90.5872 -14.5828 -923.958 -246.076 -208.39 42.718 61.1936 -418.103 31.8754 -643.88 -31.3166 53.505 -286.734 -382.237 -169.767 -483.857 -993.92 -581.158 -830.674 -706.602
internal_weight=25939 2440 23499 5734 1840 600 17765 12328 7075 2577 1915 3157 280 1160 602 5437 5253 680 836 320 2321 4007 558 440 662 240 160 160 120 160
internal_count=25939 2440 23499 5734 1840 600 17765 12328 7075 2577 1915 3157 280 1160 602 5437 5253 680 836 320 2321 4007 558 440 662 240 160 160 120 160
is_linear=0
shrinkage=0.1


Tree=14
num_leaves=31
num_cat=0
split_feature=2 2 2 2 2 4 2 2 0 0 0 4 0 4 0 0 4 2 4 0 2 2 0 4 0 0 0 2 4 2
split_gain=3.92861e+10 8.47434e+09 5.92507e+09 1.33477e+09 8.09505e+08 7.49642e+08 7.27068e+08 5.6806e+08 4.20117e+08 3.78154e+08 2.53008e+08 2.35843e+08 2.01007e+08 1.75664e+08 1.5012e+08 1.27464e+08 1.41112e+08 1.16682e+08 1.15563e+08 1.06647e+08 8.55401e+07 7.93396e+07 7.78834e+07 6.94054e+07 6.40521e+07 5.16399e+07 4.1743e+07 3.85268e+07 3.34457e+07 3.18056e+07
threshold=12249.565000000002 4277.0500000000002 26719.825000000004 583.69000000000017 18599.025000000005 0.42846890525831427 8397.8000000000011 36485.270000000011 6209.2200000000003 2829.6900000000001 4656.4450000000006 0.63835948637505124 2202.8050000000007 0.44474732501031561 5615.7500000000009 2897.2450000000003 0.49153740955329656 22438.580000000005 0.50378313585375289 1965.9850000000001 31130.455000000005 43867.530000000006 6933.7100000000009 0.54765782903293736 2089.5650000000001 6058.1600000000008 2897.2450000000003 1796.4550000000002 0.49153740955329656 14157.830000000002
decision_type=2 2 2 2 2 2 2 2 2 2 2 2 2 2 2 2 2 2 2 2 2 2 2 2 2 2 2 2 2 2
left_child=1 3 4 5 15 9 10 20 -7 -1 19 -12 27 -14 24 29 -17 22 -16 -3 28 23 -6 -9 -8 -19 -22 -5 -4 -2
right_child=2 6 7 12 17 8 14 21 -10 -11 11 -13 13 -15 18 16 -18 25 -20 -21 26 -23 -24 -25 -26 -27 -28 -29 -30 -31
leaf_value=60.53912209815168 -289.30822468209777 -138.7738156599157 -518.29247311678807 -9.3135240386541067 -412.13642209845079 55.094132265060196 -229.03343001899373 -754.49427717823096 109.2683717000499 134.93617119314385 15.078302677574033 -82.983520018898247 59.944195615789752 5.3470291639189824 -8.2004914459429283 -181.54018217356418 -285.02118294749539 -516.48809082031255 -145.33561753897831 -80.011670163276165 -782.30065141157684 -998.127197265625 -228.306388671875 -891.00598458771663 -167.57982486804744 -374.1822387695313 -667.90845231681033 -57.607190464137673 -627.84625950863483 -361.79607493681067
leaf_weight=940 94 408 44 260 295 11165 218 59 1642 2501 528 458 781 2401 95 191 425 170 174 1271 44 40 25 101 764 30 116 453 76 170
leaf_count=940 94 408 44 260 295 11165 218 59 1642 2501 528 458 781 2401 95 191 425 170 174 1271 44 40 25 101 764 30 116 453 76 170
internal_value=-9.03078e-08 34.4019 -440.253 60.5701 -336.303 73.1737 -100.201 -743.441 62.0399 114.613 -70.679 -30.4717 7.99411 18.7475 -163.092 -277.851 -252.935 -435.224 -96.905 -94.291 -651.499 -872.159 -397.775 -840.667 -181.222 -495.142 -699.366 -39.9966 -587.677 -335.986
internal_weight=25939 24059 1880 20143 1400 16248 3916 480 12807 3441 2665 986 3895 3182 1251 880 616 520 269 1679 280 200 320 160 982 200 160 713 120 264
internal_count=25939 24059 1880 20143 1400 16248 3916 480 12807 3441 2665 986 3895 3182 1251 880 616 520 269 1679 280 200 320 160 982 200 160 713 120 264
is_linear=0
shrinkage=0.1


Tree=15
num_leaves=31
num_cat=0
split_feature=2 2 2 2 2 2 0 4 0 4 0 0 4 0 0 4 0 4 2 0 4 0 2 4 4 4 0 2 0 4
split_gain=3.18654e+10 6.74105e+09 4.91082e+09 8.81425e+08 8.30501e+08 8.25287e+08 7.15308e+08 4.95315e+08 2.9024e+08 2.48702e+08 2.18391e+08 2.15265e+08 1.88618e+08 1.84685e+08 1.41642e+08 1.36208e+08 1.5385e+08 1.34164e+08 1.28187e+08 1.23409e+08 1.1287e+08 1.22834e+08 1.01656e+08 8.38063e+07 5.34073e+07 5.11749e+07 3.64785e+07 3.25643e+07 3.17226e+07 3.15182e+07
threshold=9846.4800000000014 23174.605000000007 1796.4550000000002 33378.795000000006 15345.645000000002 5128.4350000000004 4572.4650000000011 0.52576122230861888 1756.7900000000002 0.6108069117689422 6634.0100000000011 7499.2200000000012 0.77542421937304951 6276.7800000000007 1993.4100000000001 0.69666557509366112 5564.3700000000008 0.63346810760495875 41158.725000000006 1993.4100000000001 0.74572215318997426 4478.2500000000009 28040.875000000004 0.73389343165560195 0.4305797718117485 0.68998188114551307 927.68000000000006 18599.025000000005 5103.9950000000008 0.50623484167761157
decision_type=2 2 2 2 2 2 2 2 2 2 2 2 2 2 2 2 2 2 2 2 2 2 2 2 2 2 2 2 2 2
left_child=2 4 6 22 15 13 8 11 26 -10 14 -8 -9 19 -7 16 -2 -12 25 -4 21 -6 24 -15 -3 -5 -1 -22 -24 -20
right_child=1 3 5 18 20 10 7 12 9 -11 17 -13 -14 23 -16 -17 -18 -19 29 -21 27 -23 28 -25 -26 -27 -28 -29 -30 -31
leaf_value=2.1086321448818071 -188.84607762133982 -369.07762817382815 -65.047161492451963 -668.75830986555229 -340.09701285013341 -150.08229516601563 113.80358688929424 82.418076554277775 72.263077118474413 38.057048334092819 74.931878676189214 213.1235371823133 37.793758552790024 77.754170069641205 -84.506909247175543 -237.96081036376955 -80.461983844294707 -77.847790179479702 -765.60317101111787 -10.064687497658566 -347.38681252219465 -240.81906308605895 -600.20878392269731 -19.95399044466312 -492.82708669354844 -774.46917088468308 27.340116904770554 -430.22447213478466 -501.82732888926631 -899.61479944299776
leaf_weight=1086 635 45 494 129 328 400 2309 2821 4329 4176 127 241 1426 313 1866 400 165 105 26 2351 88 201 114 122 155 71 1213 103 46 54
leaf_count=1086 635 45 494 129 328 400 2309 2821 4329 4176 127 241 1426 313 1866 400 165 105 26 2351 88 201 114 122 155 71 1213 103 46 54
internal_value=6.72087e-08 -334.947 36.6767 -616.01 -241.259 -43.3148 62.936 88.3523 46.9462 55.4677 -86.6215 123.19 67.4347 -10.3331 -96.0824 -190.315 -166.492 5.78591 -749.079 -19.6117 -326.166 -302.375 -512.513 50.351 -464.983 -706.286 15.4213 -392.058 -571.924 -856.061
internal_weight=25939 2560 23379 640 1920 5778 17601 6797 10804 8505 2498 2550 4247 3280 2266 1200 800 232 280 2845 720 529 360 435 200 200 2299 191 160 80
internal_count=25939 2560 23379 640 1920 5778 17601 6797 10804 8505 2498 2550 4247 3280 2266 1200 800 232 280 2845 720 529 360 435 200 200 2299 191 160 80
is_linear=0
shrinkage=0.1


Tree=16
num_leaves=31
num_cat=0
split_feature=2 2 2 2 2 0 2 2 4 0 4 4 0 0 0 0 0 4 4 4 2 4 4 0 2 4 0 2 2 2
split_gain=2.58989e+10 5.7108e+09 3.76765e+09 7.30123e+08 6.81677e+08 5.38809e+08 5.06678e+08 3.83509e+08 3.43152e+08 2.43524e+08 1.98401e+08 1.93622e+08 1.53297e+08 1.42566e+08 1.28757e+08 9.42265e+07 9.36513e+07 1.17303e+08 9.36415e+07 8.63148e+07 8.57249e+07 7.73897e+07 6.65649e+07 7.07556e+07 5.5613e+07 4.97005e+07 4.87503e+07 3.70272e+07 2.82048e+07 5.8999e+06
threshold=12547.580000000002 3697.5500000000006 26719.825000000004 260.24500000000006 7069.3350000000009 4944.9550000000008 18078.945000000003 36485.270000000011 0.53817214436789795 1826.1950000000004 0.41696205409393877 0.48931476545133717 5954.9400000000014 3444.3400000000006 4572.4650000000011 2089.5650000000001 3177.3050000000007 0.56840369920044076 0.48464782424583713 0.78284930131344221 9363.4450000000015 0.7899969147949647 0.60400597542049528 2808.4650000000006 43867.530000000006 0.54765782903293736 1092.8400000000004 21433.885000000006 32355.485000000004 14449.580000000002
decision_type=2 2 2 2 2 2 2 2 2 2 2 2 2 2 2 2 2 2 2 2 2 2 2 2 2 2 2 2 2 2
left_child=1 3 6 5 11 9 15 22 -7 -1 12 13 -6 -3 26 29 27 -18 -17 -16 -12 -13 23 -4 25 -9 -5 -8 -24 -2
right_child=2 4 7 14 10 8 16 24 -10 -11 20 21 -14 -15 19 18 17 -19 -20 -21 -22 -23 28 -25 -26 -27 -28 -29 -30 -31
leaf_value=17.960018942428526 -270.84511235075178 -52.73580674738497 -612.44909116683471 -45.894096242078405 -89.801526833158562 120.17276722756411 -361.61459862294828 -608.96245117187505 66.492888330501373 55.270382000839874 -113.92931077868175 -44.972214013399537 56.171244724937111 35.64699288004806 45.416825856315207 -150.74770982623718 -255.35878551006317 -369.98202327312811 -233.76586423387718 -17.020298237774206 -161.569731737377 -91.169005661160639 -534.35888869826863 -441.57267270474824 -813.71346435546877 -724.48148350479585 1.1917960464891142 -448.10295878708968 -625.01464691162118 -312.48921772203948
leaf_weight=2191 53 296 31 247 330 1950 99 59 3059 8679 836 1261 92 476 1210 193 160 202 459 271 689 509 74 111 40 101 2003 99 64 95
leaf_count=2191 53 296 31 247 330 1950 99 59 3059 8679 836 1261 92 476 1210 193 160 202 459 271 689 509 74 111 40 101 2003 99 64 95
internal_value=1.05122e-07 27.6104 -361.622 50.9013 -74.1346 60.2545 -276.61 -602.487 87.3904 47.75 -118.661 -40.0302 -57.9781 1.75929 11.0944 -225.543 -349.564 -319.32 -209.191 33.9918 -135.453 -58.2571 -526.943 -478.877 -708.25 -681.884 -3.97719 -404.859 -576.402 -297.576
internal_weight=25939 24099 1840 19610 4489 15879 1360 480 5009 10870 1947 2542 422 772 3731 800 560 362 652 1481 1525 1770 280 142 200 160 2250 198 138 148
internal_count=25939 24099 1840 19610 4489 15879 1360 480 5009 10870 1947 2542 422 772 3731 800 560 362 652 1481 1525 1770 280 142 200 160 2250 198 138 148
is_linear=0
shrinkage=0.1


Tree=17
num_leaves=31
num_cat=0
split_feature=2 2 2 2 2 4 2 0 0 4 4 0 0 4 0 4 0 4 2 4 4 0 0 4 0 0 2 0 0 2
split_gain=2.10053e+10 3.85446e+09 3.76523e+09 6.244e+08 5.7243e+08 5.43675e+08 3.98347e+08 3.29669e+08 2.44914e+08 2.10892e+08 1.93709e+08 1.54206e+08 1.44176e+08 1.40614e+08 1.09946e+08 1.05192e+08 1.02433e+08 1.11884e+08 9.0012e+07 8.99631e+07 6.8488e+07 9.00907e+07 6.68706e+07 6.96975e+07 6.52376e+07 5.99904e+07 4.42634e+07 3.95279e+07 3.63792e+07 2.34318e+07
threshold=10791.860000000002 23174.605000000007 2373.2800000000002 6272.5700000000006 33378.795000000006 0.41209065809353412 16703.400000000005 6346.9950000000017 3301.6150000000002 0.76313156443997288 0.46304731035031471 4822.3950000000013 7413.3500000000013 0.44474732501031561 6244.2900000000009 0.76313156443997288 2918.6750000000006 0.73823810227245723 40009.255000000012 0.78814986976605927 0.65644457897477737 5398.1500000000005 5081.8100000000013 0.53551487314438651 1524.2900000000002 1350.5150000000001 29660.760000000006 4460.7050000000008 6209.2200000000003 21433.885000000006
decision_type=2 2 2 2 2 2 2 2 2 2 2 2 2 2 2 2 2 2 2 2 2 2 2 2 2 2 2 2 2 2
left_child=2 6 5 10 22 8 16 9 25 -7 14 24 -10 -13 -4 -9 -2 -18 28 -12 21 -8 26 -24 -5 -1 -3 -20 -6 -22
right_child=1 4 3 11 18 7 20 15 12 -11 19 13 -14 -15 -16 -17 17 -19 27 -21 29 -23 23 -25 -26 -27 -28 -29 -30 -31
leaf_value=12.893192260247304 -222.30135887374118 -415.43518736304304 6.5641032698429784 -159.6660205876716 -578.27884952320778 43.87123875412064 -277.14030442237856 98.715315163433061 99.388500830874136 15.852968694308295 -21.877092978405443 24.177790275948951 206.15037027994791 -77.718066456038756 106.72608247045429 43.542436776045982 -128.82611424555455 -215.4755999136662 -722.16245046422102 -64.605036501296397 -302.51314392089847 -153.15159681219805 -264.73022204589842 -423.41551277406757 -99.412833691238831 63.23880250072903 -504.70128435407372 -606.06229224111519 -444.73886718750003 -378.91646822415868
leaf_weight=321 301 164 762 214 136 9453 256 1202 2007 3753 1840 183 135 521 128 485 532 207 69 673 176 76 50 62 1121 901 84 51 24 52
leaf_count=321 301 164 762 214 136 9453 256 1202 2007 3753 1840 183 135 521 128 485 532 207 69 673 176 76 50 62 1121 901 84 51 24 52
internal_value=-8.1966e-08 -292.704 27.666 -45.3413 -500.113 49.4279 -209.741 41.2264 85.7372 35.9088 -19.1214 -89.101 106.117 -51.2309 20.9694 82.8535 -173.127 -153.097 -607.35 -33.32 -277.738 -248.757 -416.707 -352.574 -109.071 50.0138 -445.67 -672.82 -558.248 -319.938
internal_weight=25939 2240 23699 5442 640 18257 1600 14893 3364 13206 3403 2039 2142 704 890 1687 1040 739 280 2513 560 332 360 112 1335 1222 248 120 160 228
internal_count=25939 2240 23699 5442 640 18257 1600 14893 3364 13206 3403 2039 2142 704 890 1687 1040 739 280 2513 560 332 360 112 1335 1222 248 120 160 228
is_linear=0
shrinkage=0.1


Tree=18
num_leaves=31
num_cat=0
split_feature=2 2 2 2 2 4 2 0 4 0 0 0 4 0 0 2 0 4 2 0 0 4 0 0 0 4 0 4 4 0
split_gain=1.70684e+10 3.8018e+09 2.47726e+09 5.26933e+08 4.63668e+08 4.31412e+08 4.10418e+08 2.68263e+08 2.40866e+08 1.86926e+08 1.58018e+08 1.18313e+08 1.12033e+08 9.55988e+07 9.13422e+07 8.81736e+07 8.69746e+07 8.14451e+07 7.582e+07 6.46681e+07 5.98131e+07 5.9609e+07 6.21589e+07 5.48835e+07 5.40919e+07 4.57266e+07 4.15887e+07 4.11592e+07 3.87898e+07 2.45888e+07
threshold=9363.4450000000015 23174.605000000007 1667.5000000000002 14157.830000000002 33378.795000000006 0.40486847988709534 4758.5550000000012 2874.4500000000003 0.76758264512789043 4229.9450000000006 6209.2200000000003 6276.7800000000007 0.71488793713012078 2470.3650000000002 7413.3500000000013 17679.515000000003 6679.4900000000007 0.51114426953395931 38365.220000000008 1399.0100000000002 1682.8650000000002 0.63131075136438242 4637.2000000000007 2554.0350000000003 1092.8400000000004 0.60635931401968901 2985.9950000000003 0.67296776739699704 0.46981166631262267 2918.6750000000006
decision_type=2 2 2 2 2 2 2 2 2 2 2 2 2 2 2 2 2 2 2 2 2 2 2 2 2 2 2 2 2 2
left_child=2 3 5 16 21 9 11 24 -9 19 13 17 -12 -8 -11 28 20 -4 29 -1 -2 22 -3 -17 -7 -18 -20 -13 -5 -6
right_child=1 4 6 15 18 7 10 8 -10 14 12 27 -14 -15 -16 23 25 -19 26 -21 -22 -23 -24 -25 -26 -27 -28 -29 -30 -31
leaf_value=15.947209883278802 -194.85478086274247 -384.82394565316139 12.441996352311648 -150.12514857995896 -547.10233807231111 -1.7647195776629827 -102.04929036449742 57.360545420414205 22.85307933923978 99.906085376965677 41.107732409645763 70.464444635522142 -79.317693723951081 -55.431171318613622 189.84151591639366 -324.15125222807956 26.954786043900711 -24.256391021059748 -679.98616210937507 67.444603997640272 -125.71082152274617 -424.0183024088542 -274.28711409795852 -240.74212667850077 24.552644804612058 -105.66181332514837 -562.24533955891934 4.991111584491545 -215.06985242179272 -452.70063666801957
leaf_weight=299 145 129 912 124 43 1043 592 7506 2769 1265 249 255 112 1712 124 103 52 1795 40 1322 912 147 84 337 3109 52 120 154 356 77
leaf_count=299 145 129 912 124 43 1043 592 7506 2769 1265 249 255 112 1712 124 103 52 1795 40 1322 912 147 84 337 3109 52 120 154 356 77
internal_value=-9.26221e-08 -236.956 27.7698 -171.405 -450.102 46.5776 -28.9595 39.3929 48.0612 81.0138 -57.7708 -4.31838 3.74583 -67.4094 107.935 -227.933 -126.611 -11.8925 -546.615 57.9457 -135.196 -375.036 -341.232 -260.267 17.9416 -39.3535 -591.681 45.8119 -198.292 -486.528
internal_weight=25939 2721 23218 2081 640 17437 5781 14427 10275 3010 2665 3116 361 2304 1389 920 1161 2707 280 1621 1057 360 213 440 4152 104 160 409 480 120
internal_count=25939 2721 23218 2081 640 17437 5781 14427 10275 3010 2665 3116 361 2304 1389 920 1161 2707 280 1621 1057 360 213 440 4152 104 160 409 480 120
is_linear=0
shrinkage=0.1


Tree=19
num_leaves=31
num_cat=0
split_feature=2 2 2 2 0 2 4 2 2 4 4 4 0 0 0 0 0 4 4 4 0 0 4 0 0 4 4 2 2 4
split_gain=1.38512e+10 3.066e+09 2.02477e+09 5.59727e+08 3.62652e+08 2.92965e+08 2.65158e+08 2.64683e+08 2.00846e+08 1.22509e+08 1.18774e+08 1.16879e+08 1.12849e+08 9.98407e+07 8.58158e+07 7.67858e+07 7.05787e+07 6.51299e+07 5.94606e+07 5.39228e+07 6.52192e+07 4.86375e+07 6.0997e+07 3.51129e+07 3.36868e+07 3.43849e+07 2.71333e+07 1.10999e+07 9.46787e+06 6.82339e+06
threshold=12547.580000000002 4277.0500000000002 26719.825000000004 228.22000000000003 6554.3350000000009 7904.2100000000009 0.48204672907728058 18979.655000000002 38365.220000000008 0.74358119453610694 0.42846890525831427 0.74091101948751226 6594.7250000000013 3655.2800000000002 6209.2200000000003 2174.4250000000006 4822.3950000000013 0.54989352437990446 0.79434132023424542 0.77542421937304951 2808.4650000000006 2808.4650000000006 0.53817214436789795 1993.4100000000001 2985.9950000000003 0.64271084631985309 0.4305797718117485 21433.885000000006 32355.485000000004 0.81618810951270671
decision_type=2 2 2 2 2 2 2 2 2 2 2 2 2 2 2 2 2 2 2 2 2 2 2 2 2 2 2 2 2 2
left_child=1 3 7 4 6 10 -1 16 21 -6 14 13 15 -7 -3 -5 23 -18 -12 20 -9 28 -23 -2 -10 -26 -14 -21 -4 -13
right_child=2 5 8 12 9 11 -8 19 24 -11 18 29 26 -15 -16 -17 17 -19 -20 27 -22 22 -24 -25 25 -27 -28 -29 -30 -31
leaf_value=60.619782178232583 -230.25165153952207 -14.164053022699623 -422.3102198550576 -29.748182558052509 108.6270295075626 -115.42042563777085 30.891678812445658 -309.85331432414506 -611.9875390625001 44.711451992942294 -40.165088177470807 -130.81241328207295 105.56570850372314 -54.98771755966915 97.362231008017943 5.6421414560390017 -69.901141427692622 -168.06754029170577 -80.286481657720387 -282.92204531715032 -216.99224246631971 -310.9813534451514 -414.61865715528057 -174.74955757021638 -456.78082143930288 -564.21352006392044 40.873880654399159 -348.3069142061122 -489.1235321044922 -158.31148314762638
leaf_weight=4278 153 435 38 763 1102 459 10046 106 40 412 1447 178 80 676 82 3120 114 166 496 42 264 97 137 447 65 55 342 68 48 183
leaf_count=4278 153 435 38 763 1102 459 10046 106 40 412 1447 178 80 676 82 3120 114 166 496 42 264 97 137 447 65 55 342 68 48 183
internal_value=-2.97856e-08 20.1918 -264.458 35.999 44.6898 -60.2942 39.7703 -202.138 -441.033 91.2339 -39.0726 -95.1907 4.02549 -79.427 3.52484 -1.31197 -169.556 -128.1 -50.4071 -261.871 -243.596 -395.293 -371.658 -188.903 -532.512 -506.021 53.1377 -323.342 -459.601 -144.752
internal_weight=25939 24099 1840 20143 15838 3956 14324 1360 480 1514 2460 1496 4305 1135 517 3883 880 280 1943 480 370 320 234 600 160 120 422 110 86 361
internal_count=25939 24099 1840 20143 15838 3956 14324 1360 480 1514 2460 1496 4305 1135 517 3883 880 280 1943 480 370 320 234 600 160 120 422 110 86 361
is_linear=0
shrinkage=0.1


Tree=20
num_leaves=31
num_cat=0
split_feature=2 2 2 2 0 2 2 4 0 4 0 0 4 4 0 4 0 0 4 2 0 2 0 4 4 4 4 4 2 4
split_gain=1.12402e+10 2.50547e+09 1.63745e+09 3.48162e+08 3.3667e+08 3.13383e+08 2.66381e+08 1.84803e+08 1.85502e+08 1.58402e+08 1.31195e+08 1.24526e+08 1.17997e+08 9.25769e+07 8.08682e+07 7.16018e+07 8.07667e+07 7.14544e+07 6.86508e+07 6.78819e+07 5.186e+07 4.62541e+07 4.29552e+07 3.75127e+07 3.31041e+07 3.25203e+07 2.97647e+07 2.44438e+07 1.98944e+07 1.8926e+07
threshold=9363.4450000000015 23174.605000000007 1667.5000000000002 14449.580000000002 5538.3350000000009 32355.485000000004 4758.5550000000012 0.72703545497289668 1524.2900000000002 0.72703545497289668 7834.5300000000007 4530.8300000000008 0.71765700151950296 0.56075931537712653 1826.1950000000004 0.73176881546903294 6414.3700000000008 5757.0850000000009 0.50378313585375289 41158.725000000006 1565.8100000000002 20850.625000000004 5866.1550000000007 0.81859693886117946 0.69666557509366112 0.85450791477373211 0.52832700743133565 0.8477076963318817 29660.760000000006 0.50623484167761157
decision_type=2 2 2 2 2 2 2 2 2 2 2 2 2 2 2 2 2 2 2 2 2 2 2 2 2 2 2 2 2 2
left_child=2 3 4 15 7 22 13 8 -1 10 -6 20 -13 14 -4 16 -2 21 -19 24 -8 -5 28 -15 -7 -11 -24 -9 -3 -21
right_child=1 5 6 17 9 19 11 27 -10 25 -12 12 -14 23 -16 -17 -18 18 -20 29 -22 -23 26 -25 -26 -27 -28 -29 -30 -31
leaf_value=3.3837020262508268 -99.202154420941611 -295.75516260251482 -46.322874535298489 -188.11678655640694 69.191041285783058 -381.70324085016921 -103.05450938050177 17.498021763811508 43.478431631054399 43.077996878380553 138.31945574360509 2.2146122827595227 -70.377185414081026 -10.331268301002858 26.593664141222838 -142.99826694364745 0.8991620932685005 -39.546307910721879 -175.80645357019762 -444.9763773991512 -55.974073690701147 -253.05443151403358 -133.54568835449217 -44.210627638347958 -459.78643578219129 5.1054282430931934 -284.97174298321761 0.43048772632409604 -358.67641091417909 -548.82266167534726
leaf_weight=1339 772 201 176 585 2400 157 284 2748 8348 764 310 730 323 1393 1120 339 90 58 102 26 1328 135 25 427 83 320 27 1208 67 54
leaf_count=1339 772 201 176 585 2400 157 284 2748 8348 764 310 730 323 1393 1120 339 90 58 102 26 1328 135 25 427 83 320 27 1208 67 54
internal_value=1.36821e-08 -192.291 22.5352 -139.076 37.8262 -365.323 -23.5865 30.4987 37.9363 64.1758 77.0987 -46.7978 -20.0524 -3.7347 16.6914 -104.063 -88.7507 -186.86 -126.412 -435.298 -64.2686 -200.293 -295.347 -18.2799 -408.707 31.8684 -212.171 12.2863 -311.485 -515.073
internal_weight=25939 2721 23218 2081 17437 640 5781 13643 9687 3794 2710 2665 1053 3116 1296 1201 862 880 160 320 1612 720 320 1820 240 1084 52 3956 268 80
internal_count=25939 2721 23218 2081 17437 640 5781 13643 9687 3794 2710 2665 1053 3116 1296 1201 862 880 160 320 1612 720 320 1820 240 1084 52 3956 268 80
is_linear=0
shrinkage=0.1


Tree=21
num_leaves=31
num_cat=0
split_feature=2 2 2 4 2 2 2 0 0 4 0 2 0 0 0 0 4 4 0 4 4 0 0 4 0 4 0 2 0 2
split_gain=9.11781e+09 2.06278e+09 1.29875e+09 3.30971e+08 2.82623e+08 2.67306e+08 1.95733e+08 1.80935e+08 1.32632e+08 1.21275e+08 1.12696e+08 1.10876e+08 7.72519e+07 7.57646e+07 7.22953e+07 6.88872e+07 7.686e+07 5.73514e+07 5.19848e+07 4.54223e+07 3.99188e+07 3.70208e+07 2.80306e+07 2.82578e+07 2.65371e+07 2.2768e+07 2.0036e+07 1.77555e+07 1.60084e+07 1.35375e+07
threshold=12755.355000000001 3650.2700000000004 28040.875000000004 0.38018850598156145 7069.3350000000009 123.81000000000002 20850.625000000004 3199.4850000000001 2554.0350000000003 0.41696205409393877 6832.1250000000009 38365.220000000008 7122.8850000000011 2495.4200000000005 7332.0950000000003 2579.2350000000001 0.60841762951388412 0.77020378397081612 7196.8600000000006 0.4305797718117485 0.52075148044083808 3360.7600000000007 5081.8100000000013 0.53817214436789795 4460.7050000000008 0.65408501406861208 983.6450000000001 32355.485000000004 1565.8100000000002 43867.530000000006
decision_type=2 2 2 2 2 2 2 2 2 2 2 2 2 2 2 2 2 2 2 2 2 2 2 2 2 2 2 2 2 2
left_child=1 3 6 8 10 7 15 -5 26 12 13 22 -6 -3 -10 -2 -17 -11 -7 21 -12 -8 27 -24 29 -26 -1 -4 -21 -13
right_child=2 4 11 5 9 18 19 -9 14 17 20 24 -14 -15 -16 16 -18 -19 -20 28 -22 -23 23 -25 25 -27 -28 -29 -30 -31
leaf_value=-7.3576391084249639 -191.86536791102606 -59.335599904219308 -314.58318675321698 15.526412063976085 -39.067810941198651 -3.1361508528920332 -265.24108450753346 39.781653289580547 71.118351793864903 -74.250017924329512 107.47172542262723 -444.92648607336963 108.50889626527444 -18.242700427700253 154.14000881985501 -98.328292569388509 -162.24190438406811 -117.96846085722223 51.266070292585646 -320.01114698840729 15.465685076346766 -126.35004453815398 -209.71528930664064 -328.36605100047836 -332.38868679355937 -449.61851318359379 33.425826559908948 -375.19832229614258 -243.65014806111654 -532.11923014322917
leaf_weight=172 247 600 85 4685 392 3156 28 8952 1905 1150 74 69 39 1779 111 368 385 406 186 31 130 61 34 49 37 30 402 112 240 24
leaf_count=172 247 600 85 4685 392 3156 28 8952 1905 1150 74 69 39 1779 111 368 385 406 186 31 130 61 34 49 37 30 402 112 240 24
internal_value=-2.88411e-08 16.1899 -217.116 30.3166 -44.3013 25.2373 -168.801 31.4487 63.6145 -72.655 -22.49 -366.454 -25.714 -28.6066 75.6895 -146.039 -131.007 -85.6573 -0.108379 -232.029 48.8404 -170.046 -328.507 -279.762 -432.861 -384.88 21.205 -349.045 -252.385 -467.428
internal_weight=25939 24139 1800 19569 4570 16979 1360 13637 2590 1987 2583 440 431 2379 2016 1000 753 1556 3342 360 204 89 280 83 160 67 574 197 271 93
internal_count=25939 24139 1800 19569 4570 16979 1360 13637 2590 1987 2583 440 431 2379 2016 1000 753 1556 3342 360 204 89 280 83 160 67 574 197 271 93
is_linear=0
shrinkage=0.1


Tree=22
num_leaves=31
num_cat=0
split_feature=2 2 2 2 4 0 2 2 0 4 0 0 0 4 4 0 4 0 4 4 0 0 0 4 0 2 4 2 2 4
split_gain=7.42383e+09 1.73061e+09 1.02218e+09 2.57788e+08 2.52206e+08 2.42423e+08 2.04869e+08 1.7931e+08 1.47312e+08 9.15626e+07 8.44032e+07 8.33952e+07 7.36962e+07 6.15081e+07 5.98942e+07 6.9588e+07 5.82017e+07 5.42317e+07 4.27498e+07 4.12536e+07 4.62178e+07 4.04192e+07 3.98699e+07 3.90791e+07 3.19608e+07 3.17464e+07 2.91615e+07 1.50466e+07 1.5036e+07 2.79949e+06
threshold=8983.4200000000019 23174.605000000007 911.49500000000012 14157.830000000002 0.72218700307278427 3775.0350000000003 34959.125000000007 4758.5550000000012 7196.8600000000006 0.42846890525831427 4594.130000000001 1041.7300000000002 3444.3400000000006 0.4503444871506071 0.75066850834093857 4734.4250000000002 0.75296265249512384 3579.1250000000005 0.77020378397081612 0.66812820840627318 2089.5650000000001 1350.5150000000001 6731.7100000000009 0.85450791477373211 5057.4100000000008 43867.530000000006 0.7856792642376772 17417.950000000001 31130.455000000005 0.87765975410240593
decision_type=2 2 2 2 2 2 2 2 2 2 2 2 2 2 2 2 2 2 2 2 2 2 2 2 2 2 2 2 2 2
left_child=2 3 4 13 5 11 19 10 -7 12 21 -1 -9 17 15 -5 -12 -2 -11 20 -3 -4 25 24 -6 -8 -15 -16 -21 -25
right_child=1 6 7 14 23 8 22 9 -10 18 16 -13 -14 26 27 -17 -18 -19 -20 28 -22 -23 -24 29 -26 -27 -28 -29 -30 -31
leaf_value=-5.281816539699097 -96.220124543602793 -325.11811058407739 -44.837185155280388 -158.10609915019663 12.52965771112933 48.279602789676204 -365.02504963743098 -47.771165925590559 100.18781487168066 -36.269785124067852 27.75192816762717 29.58059854176221 28.403638595947321 -85.035721800684456 -167.77602770575163 -90.369372751838284 -17.981185157263216 -15.590942903449633 -68.530828499022292 -274.08651225842931 -210.59893591197115 -7.9476571749155092 -241.02869456898085 3.0995380159444608 33.284303193912272 -466.6815489073058 -125.86425120257917 -217.97978059101879 -344.79718572443181 -6.0913443623884458
leaf_weight=810 134 42 347 453 2583 5765 181 201 604 1368 1161 4488 345 741 116 228 366 221 587 95 219 2062 22 652 1041 37 229 123 44 674
leaf_count=810 134 42 347 453 2583 5765 181 201 604 1368 1161 4488 345 741 116 228 366 221 587 95 219 2062 22 652 1041 37 229 123 44 674
internal_value=-4.70277e-08 -151.23 18.925 -109.877 32.0306 40.0553 -296.289 -14.9068 53.2023 -35.8446 -1.60257 24.2506 0.361266 -81.6404 -150.543 -135.428 16.7904 -46.0256 -45.9563 -252.464 -229.027 -13.2613 -369.331 13.1168 18.4915 -382.279 -94.6746 -193.613 -296.47 -1.57215
internal_weight=25939 2885 23054 2245 16617 11667 640 6437 6369 2501 3936 5298 546 1325 920 681 1527 355 1955 400 261 2409 240 4950 3624 218 970 239 139 1326
internal_count=25939 2885 23054 2245 16617 11667 640 6437 6369 2501 3936 5298 546 1325 920 681 1527 355 1955 400 261 2409 240 4950 3624 218 970 239 139 1326
is_linear=0
shrinkage=0.1


Tree=23
num_leaves=31
num_cat=0
split_feature=2 2 2 2 4 2 0 2 0 0 0 4 0 0 4 0 0 0 4 0 0 4 0 4 0 4 4 0 4 2
split_gain=6.03251e+09 1.09354e+09 1.09183e+09 2.36132e+08 2.29416e+08 1.8301e+08 1.4796e+08 1.10672e+08 1.03146e+08 9.72117e+07 9.70003e+07 8.27298e+07 7.48031e+07 5.86672e+07 4.93534e+07 4.71325e+07 3.84698e+07 3.84322e+07 3.6619e+07 3.6535e+07 3.52422e+07 3.26568e+07 2.69891e+07 2.61868e+07 2.61016e+07 3.45897e+07 2.57804e+07 3.13478e+07 2.01612e+07 7.23453e+06
threshold=10791.860000000002 25758.810000000005 1629.7800000000002 6510.1100000000015 0.39776596179529783 17417.950000000001 7048.9350000000004 36485.270000000011 7196.8600000000006 1993.4100000000001 4637.2000000000007 0.42846890525831427 5810.1850000000004 6314.9450000000006 0.57087067022689808 6933.7100000000009 1682.8650000000002 8094.4000000000005 0.48676624479132619 1720.5000000000002 2028.8150000000003 0.81103904264962767 1608.1150000000002 0.54989352437990446 2314.9450000000002 0.49416948556257184 0.73176881546903294 5514.2200000000003 0.45523167126499514 41158.725000000006
decision_type=2 2 2 2 2 2 2 2 2 2 2 2 2 2 2 2 2 2 2 2 2 2 2 2 2 2 2 2 2 2
left_child=2 5 4 8 10 13 9 24 11 -6 20 -4 19 16 -14 22 -2 -12 -15 -5 -1 -8 -7 -10 -3 -26 27 -9 -17 -28
right_child=1 7 3 12 6 15 21 26 23 -11 17 -13 14 18 -16 28 -18 -19 -20 -21 -22 -23 -24 -25 25 -27 29 -29 -30 -31
leaf_value=15.397274332554398 -149.72590524558254 -304.5823799133301 15.264098519866648 -97.273375132198424 1.3467954005477598 -227.29934576910898 73.548198552747394 -342.97176733618386 93.888447994656033 23.97653205188638 73.32230256166298 -19.263881356118574 29.731544551962898 37.841829050580664 -43.541228780135732 9.7401721668243422 -94.5911616712241 159.90447184244795 -71.889152297054437 -53.89179148301892 47.871859002656059 24.783287741683125 -162.41907460848492 27.967500333042889 -181.95078142538841 -259.55594980815459 -368.77970174153648 -226.20835918558055 -123.80739464393031 -439.65973409016925
leaf_weight=453 149 64 879 229 2274 74 666 111 99 11489 1013 3296 168 48 203 20 840 54 83 1275 1274 173 480 154 87 169 36 29 26 24
leaf_count=453 149 64 879 229 2274 74 666 111 99 11489 1013 3296 168 48 203 20 840 54 83 1275 1274 173 480 154 87 169 36 29 26 24
internal_value=-3.35613e-08 -156.86 14.8263 -20.8323 27.7462 -118.443 22.7229 -283.934 -8.23728 20.2375 53.9993 -11.9944 -50.5769 -94.568 -10.3611 -163.009 -102.898 77.7042 -31.6824 -60.4971 39.3536 63.493 -171.085 53.7627 -247.462 -233.182 -342.289 -318.785 -65.7432 -397.132
internal_weight=25939 2240 23699 6303 17396 1720 14602 520 4428 13763 2794 4175 1875 1120 371 600 989 1067 131 1504 1727 839 554 253 320 256 200 140 46 60
internal_count=25939 2240 23699 6303 17396 1720 14602 520 4428 13763 2794 4175 1875 1120 371 600 989 1067 131 1504 1727 839 554 253 320 256 200 140 46 60
is_linear=0
shrinkage=0.1


Tree=24
num_leaves=31
num_cat=0
split_feature=2 2 2 2 4 0 0 2 4 2 0 0 0 4 0 4 0 4 0 0 2 0 0 4 4 0 2 1 0 4
split_gain=4.89596e+09 1.1656e+09 6.68527e+08 1.96826e+08 1.94082e+08 1.5405e+08 1.3009e+08 1.30036e+08 1.11599e+08 9.13523e+07 8.81632e+07 7.16787e+07 6.57126e+07 4.95392e+07 4.93389e+07 4.93474e+07 4.55159e+07 3.99875e+07 4.94193e+07 3.89894e+07 3.82734e+07 3.60137e+07 2.54338e+07 2.47598e+07 2.33772e+07 2.26223e+07 1.95457e+07 1.49736e+07 1.47055e+07 5.89379e+06
threshold=8894.5150000000012 21433.885000000006 833.66000000000008 31130.455000000005 0.64707244847453937 5615.7500000000009 4617.5150000000003 13946.195000000002 0.78814986976605927 5307.7000000000007 1305.4350000000002 7730.295000000001 8290.0950000000012 0.83417462162904865 4530.8300000000008 0.53319996218730803 4779.9400000000014 0.76047190678873033 1900.4350000000002 1446.8950000000002 41158.725000000006 5866.1550000000007 1682.8650000000002 0.52832700743133565 0.69666557509366112 1203.4200000000003 3222.6300000000006 1492.5050000000003 1565.8100000000002 0.86494612683902639
decision_type=2 2 2 2 2 2 2 2 2 2 2 2 2 2 2 2 2 2 2 2 2 2 2 2 2 2 2 2 2 2
left_child=2 7 4 21 5 10 9 14 11 19 -1 -8 -7 16 25 -16 -6 18 -9 -4 24 28 -11 -23 -5 -2 -10 -22 -3 -15
right_child=1 3 6 20 13 12 8 17 26 22 -12 -13 -14 29 15 -17 -18 -19 -20 -21 27 23 -24 -25 -26 -27 -28 -29 -30 -31
leaf_value=-1.2099728692007121 -121.89411221394496 -248.66892438616074 -40.443045734525562 -244.06530853599631 11.868274991032322 55.479781063127135 10.988846321662354 -163.37635067531042 -11.649252889586277 -75.558372845566069 32.78514764270998 79.992366279043807 130.37538112792967 6.0268592092063296 -1.9415145206525921 -65.33844658683681 31.837496952945635 -154.26852633666994 -90.243535373427662 -7.6400496494687946 -417.9692834472657 -53.061199550067684 -38.600928253217006 -176.63027816280243 -305.25175950070644 -73.650174250980086 -53.331957184125308 -318.05725972493491 -185.39798372548594 -5.2205470444768105
leaf_weight=861 113 42 429 186 3370 1865 1834 112 183 228 6694 164 125 827 200 318 1726 200 528 2332 20 34 1016 31 94 695 292 60 293 1067
leaf_count=861 113 42 429 186 3370 1865 1834 112 183 228 6694 164 125 827 200 318 1726 200 528 2332 20 34 1016 31 94 695 292 60 293 1067
internal_value=-4.45686e-08 -121.84 15.4915 -228.392 26.1597 35.431 -11.739 -84.454 6.29501 -22.8745 28.9109 16.6528 60.1843 13.4995 -64.9524 -40.8609 18.6318 -115.239 -103.042 -12.7369 -282.035 -180.113 -45.3745 -111.994 -264.606 -80.3972 -37.2731 -343.035 -193.33 -0.309457
internal_weight=25939 2926 23013 760 16535 9545 6478 2166 2473 4005 7555 1998 1990 6990 1326 518 5096 840 640 2761 360 400 1244 65 280 808 475 80 335 1894
internal_count=25939 2926 23013 760 16535 9545 6478 2166 2473 4005 7555 1998 1990 6990 1326 518 5096 840 640 2761 360 400 1244 65 280 808 475 80 335 1894
is_linear=0
shrinkage=0.1


Tree=25
num_leaves=31
num_cat=0
split_feature=2 2 2 4 2 2 2 0 0 4 0 4 4 0 0 0 4 0 4 0 0 2 4 0 4 4 0 4 0 2
split_gain=3.97428e+09 8.06824e+08 6.55966e+08 1.72786e+08 1.48784e+08 1.1742e+08 9.75648e+07 8.4759e+07 7.84498e+07 6.97308e+07 6.57391e+07 7.09993e+07 6.49488e+07 5.39345e+07 4.42723e+07 4.39579e+07 3.80849e+07 4.03095e+07 3.5555e+07 3.41632e+07 2.69601e+07 2.68528e+07 2.16111e+07 2.09049e+07 2.65702e+07 1.6379e+07 1.62676e+07 1.51276e+07 1.50986e+07 6.28144e+06
threshold=10022.195000000002 23964.275000000005 878.98500000000013 0.46528860165975139 5244.1150000000007 15653.885000000002 36485.270000000011 4229.9450000000006 7196.8600000000006 0.43343787255941274 2786.7300000000005 0.39776596179529783 0.78284930131344221 2418.6200000000003 8094.4000000000005 6594.7250000000013 0.71055585399162091 2874.4500000000003 0.80667159222950457 872.05000000000007 1791.9050000000002 29660.760000000006 0.75066850834093857 3444.3400000000006 0.64271084631985309 0.72218700307278427 1041.7300000000002 0.80900792807293798 7048.9350000000004 21433.885000000006
decision_type=2 2 2 2 2 2 2 2 2 2 2 2 2 2 2 2 2 2 2 2 2 2 2 2 2 2 2 2 2 2
left_child=2 5 3 7 10 15 21 19 12 13 26 -12 -5 -6 -9 20 17 -7 -11 -1 -2 25 -17 -8 -25 -3 -4 -10 -23 -18
right_child=1 6 4 8 9 16 23 14 27 18 11 -13 -14 -15 -16 22 29 -19 -20 -21 -22 28 -24 24 -26 -27 -28 -29 -30 -31
leaf_value=-5.7940148618195089 -113.160896874689 -149.30303235317101 -42.836586838960649 20.056814206644059 -66.580064526512515 -147.05222893256646 -321.02246060306084 51.950846968703537 61.779199455465587 -34.766986144952924 39.284521334789822 -1.1977038182086948 3.2122468959185397 12.817870314593439 124.43130278153853 14.844075103874864 -145.14705082408167 -85.495009462431426 -68.071516231010705 31.740435068676817 -68.203690199438057 -228.15860987828432 -84.836024738180242 -211.93210058903352 -303.75704408842944 -213.39352938565341 -15.560090525369549 24.9036995200692 -138.52987307593935 -185.13441963943782
leaf_weight=273 157 145 288 8298 105 154 73 1990 448 1523 517 2674 3161 462 88 87 171 344 406 2170 887 179 29 69 58 55 908 148 21 51
leaf_count=273 157 145 288 8298 105 154 73 1990 448 1523 517 2674 3161 462 88 87 171 344 406 2170 887 179 29 69 58 55 908 148 21 51
internal_value=-5.14978e-08 -120.388 12.7269 23.5024 -13.2231 -88.1649 -221.352 40.1741 17.25 -32.7148 -2.13313 5.36115 15.4102 -1.88545 55.0203 -68.4756 -119.887 -104.531 -41.7766 27.546 -74.9645 -192.838 -10.0759 -278.379 -253.868 -166.928 -22.1283 52.6222 -218.748 -154.333
internal_weight=25939 2480 23459 16576 6883 1880 600 4521 12055 2496 4387 3191 11459 567 2078 1160 720 498 1929 2443 1044 400 116 200 127 200 1196 596 200 222
internal_count=25939 2480 23459 16576 6883 1880 600 4521 12055 2496 4387 3191 11459 567 2078 1160 720 498 1929 2443 1044 400 116 200 127 200 1196 596 200 222
is_linear=0
shrinkage=0.1


Tree=26
num_leaves=31
num_cat=0
split_feature=2 2 2 4 2 0 2 0 2 4 0 4 4 0 0 4 4 2 0 0 0 0 0 0 4 4 0 4 0 2
split_gain=3.22974e+09 7.66381e+08 4.47062e+08 1.47429e+08 1.28188e+08 1.08373e+08 9.66891e+07 9.04748e+07 8.54697e+07 8.41517e+07 5.176e+07 4.36938e+07 4.11483e+07 4.07373e+07 3.48224e+07 3.26178e+07 3.24357e+07 3.13622e+07 2.82029e+07 2.81259e+07 2.46539e+07 2.41478e+07 2.24498e+07 1.98305e+07 1.8817e+07 1.76611e+07 1.6057e+07 1.49425e+07 1.23848e+07 4.92043e+06
threshold=8894.5150000000012 21433.885000000006 163.01500000000001 0.37296916008756581 31130.455000000005 6594.7250000000013 4695.7650000000012 2808.4650000000006 13946.195000000002 0.81859693886117946 4268.755000000001 0.79920573462308564 0.81374626772154468 7730.295000000001 2314.9450000000002 0.3926006795810022 0.71055585399162091 43867.530000000006 5235.71 6113.5950000000012 8290.0950000000012 4003.4650000000006 805.72500000000014 6455.7500000000009 0.77542421937304951 0.52832700743133565 2234.0750000000003 0.5782324115789671 3809.4950000000003 2571.6350000000007
decision_type=2 2 2 2 2 2 2 2 2 2 2 2 2 2 2 2 2 2 2 2 2 2 2 2 2 2 2 2 2 2
left_child=2 8 3 10 19 6 12 22 13 -9 26 20 -4 16 -8 21 -2 18 -6 28 -7 -10 -5 -12 -17 -21 -1 -15 -3 -13
right_child=1 4 5 7 17 11 14 9 15 -11 23 29 -14 27 -16 24 -18 -19 -20 25 -22 -23 -24 -25 -26 -27 -28 -29 -30 -31
leaf_value=15.860254045497321 -45.310407480702601 -175.14621991205482 0.80193189928996067 -9.9792172004401607 -235.9250734749487 31.371513167742211 -51.968323101180488 27.516063557238091 -89.563420363395451 2.8334315610511238 57.889273411950398 2.7268353388497708 -27.339194815139138 105.61517227172851 -22.100408966951392 -92.499594542197201 -79.572070193231554 -312.13177581787113 -168.45270344643367 -26.175843192791117 87.908731022640907 -0.57216473738352458 9.1935918560351428 93.593519257336141 -130.13372480219061 -140.86868359375001 42.061794584657946 -11.42024813865622 -137.28473997572939 -41.064582734168333
leaf_weight=351 879 179 3681 763 236 506 502 8377 62 1654 645 38 605 20 1755 542 403 40 84 29 91 60 3060 205 176 25 701 24 167 79
leaf_count=351 879 179 3681 763 236 506 502 8377 62 1654 645 38 605 20 1755 542 403 40 84 29 91 60 3060 205 176 25 701 24 167 79
internal_value=-2.72237e-08 -98.9593 12.5822 22.0414 -185.358 -7.955 -11.9918 18.4573 -68.6439 23.4462 48.148 29.0381 -3.17039 -52.8335 -28.7436 -93.6019 -56.0806 -228.649 -218.214 -146.396 39.9894 -45.7972 5.36705 66.5003 -101.725 -79.2744 33.3196 41.7777 -156.872 -26.8417
internal_weight=25939 2926 23013 15756 760 7257 6543 13854 2166 10031 1902 714 4286 1326 2257 840 1282 360 320 400 597 122 3823 850 718 54 1052 44 346 117
internal_count=25939 2926 23013 15756 760 7257 6543 13854 2166 10031 1902 714 4286 1326 2257 840 1282 360 320 400 597 122 3823 850 718 54 1052 44 346 117
is_linear=0
shrinkage=0.1


Tree=27
num_leaves=31
num_cat=0
split_feature=2 2 2 4 4 0 2 0 2 2 0 0 2 4 0 0 0 0 4 4 0 4 1 4 0 4 4 0 0 0
split_gain=2.62169e+09 5.23813e+08 4.42292e+08 1.41215e+08 1.0681e+08 1.03051e+08 9.08182e+07 9.02931e+07 7.62272e+07 5.6343e+07 5.51462e+07 5.40727e+07 3.6542e+07 3.13581e+07 3.13508e+07 2.55738e+07 2.51587e+07 2.29757e+07 2.25975e+07 2.14476e+07 2.04071e+07 1.79194e+07 1.57418e+07 2.09935e+07 1.53422e+07 1.48807e+07 1.42626e+07 1.32094e+07 1.25528e+07 2.72488e+06
threshold=11370.790000000003 3575.3050000000007 28040.875000000004 0.37296916008756581 0.49153740955329656 6882.0950000000012 17679.515000000003 2234.0750000000003 123.81000000000002 6983.2300000000005 7413.3500000000013 3280.9750000000008 38365.220000000008 0.40486847988709534 6933.7100000000009 8815.5200000000023 6209.2200000000003 5057.4100000000008 0.77781893445014794 0.74572215318997426 1644.1250000000002 0.7856792642376772 732.70000000000016 0.64271084631985309 2985.9950000000003 0.45523167126499514 0.64271084631985309 927.68000000000006 739.92000000000019 1826.1950000000004
decision_type=2 2 2 2 2 2 2 2 2 2 2 2 2 2 2 2 2 2 2 2 2 2 2 2 2 2 2 2 2 2
left_child=1 3 6 11 7 8 13 27 -5 19 -9 28 22 17 20 -7 -13 -2 -11 -6 -8 -15 -4 -24 29 -16 -26 -3 -1 -14
right_child=2 4 12 5 9 15 14 10 -10 18 -12 16 24 21 25 -17 -18 -19 -20 -21 -22 -23 23 -25 26 -27 -28 -29 -30 -31
leaf_value=-11.738263717450593 -52.469415240478526 -87.706369375253658 -249.02517136793873 14.508344376404942 -12.603760055370705 36.5304889151598 -166.81831062413471 7.5998894291402479 -3.0192472413942708 -40.620547936038683 98.667285136101953 44.025513639748603 -314.55760620117189 -65.183907807984923 27.657823707943876 84.317274627685549 75.55602412816161 22.394209800196478 -71.107862498263813 -34.837736302381124 -112.21997025584618 -100.13242049217224 -142.99862512640053 -201.29958075757298 -185.23187171349161 -84.580475983796305 -254.4233633700284 -37.826567870692202 23.951952046346548 -262.35720458984378
leaf_weight=114 125 77 26 12867 1101 1076 79 1048 3074 847 71 1182 20 622 21 125 322 61 341 716 513 192 148 106 65 27 55 171 727 20
leaf_count=114 125 77 26 12867 1101 1076 79 1048 3074 847 71 1182 20 622 21 125 322 61 341 716 513 192 148 106 65 27 55 171 727 20
internal_value=-2.70089e-08 9.38684 -107.673 16.4051 -21.8952 13.2566 -83.7883 1.27895 11.1284 -32.4373 13.3781 39.4209 -196.7 -64.9624 -113.204 41.5041 50.7761 -27.9174 -49.3715 -21.3652 -119.506 -73.4273 -174.915 -167.329 -234.823 -35.4762 -216.945 -53.3134 19.114 -288.457
internal_weight=25939 23859 2080 19487 4372 17142 1640 1367 15941 3005 1119 2345 440 1000 640 1201 1504 186 1188 1817 592 814 280 254 160 48 120 248 841 40
internal_count=25939 23859 2080 19487 4372 17142 1640 1367 15941 3005 1119 2345 440 1000 640 1201 1504 186 1188 1817 592 814 280 254 160 48 120 248 841 40
is_linear=0
shrinkage=0.1


Tree=28
num_leaves=31
num_cat=0
split_feature=2 2 2 4 2 0 4 0 4 0 0 2 0 0 0 2 4 0 0 4 2 0 2 0 4 0 0 4 0 4
split_gain=2.13596e+09 5.46175e+08 2.66426e+08 1.12715e+08 9.08223e+07 7.99863e+07 7.96629e+07 7.24244e+07 6.01663e+07 4.83704e+07 4.56746e+07 4.32201e+07 4.05883e+07 3.48197e+07 3.30246e+07 3.2761e+07 2.95728e+07 2.88515e+07 2.53663e+07 2.44347e+07 2.23473e+07 2.20547e+07 2.1912e+07 2.155e+07 2.03148e+07 1.92096e+07 1.51181e+07 1.06254e+07 8.97743e+06 8.54651e+06
threshold=8282.2350000000024 20850.625000000004 123.81000000000002 0.54989352437990446 31130.455000000005 3775.0350000000003 0.73389343165560195 4674.4250000000011 0.43614052547147159 3342.7600000000007 7413.3500000000013 14821.330000000002 4924.8300000000008 8094.4000000000005 1041.7300000000002 3534.4600000000005 0.83417462162904865 7834.5300000000007 6731.7100000000009 0.4305797718117485 3030.2700000000004 1350.5150000000001 43867.530000000006 5129.3900000000003 0.79434132023424542 1900.4350000000002 1446.8950000000002 0.77542421937304951 872.05000000000007 0.78284930131344221
decision_type=2 2 2 2 2 2 2 2 2 2 2 2 2 2 2 2 2 2 2 2 2 2 2 2 2 2 2 2 2 2
left_child=2 8 3 7 19 15 10 14 9 26 -7 24 25 -9 -1 28 -14 -11 22 23 -8 -17 -6 -3 -10 -5 -2 -13 -4 -21
right_child=1 4 5 12 18 6 20 13 11 17 -12 27 16 -15 -16 21 -18 -19 -20 29 -22 -23 -24 -25 -26 -27 -28 -29 -30 -31
leaf_value=-4.8682029246015759 -107.43346770150322 -110.26713566499598 -28.145060448950911 -4.4977812845712322 -185.09109090080662 9.4018617564206952 -2.0714640040194623 39.378771170617853 -45.437276263572933 -8.8980721297886678 57.170609995406892 -77.877874256855733 25.517952274451275 97.00333767977628 23.296112200949654 -52.741602943182819 0.54842319649347371 114.72182754516604 -105.94631050957574 -121.46155233814885 -31.158612076092801 -22.008733279731029 -266.85697252428207 -17.021468513439864 -75.425380969869693 9.1483962425050773 -46.259301668364429 -110.92520825935134 -4.9463318885444991 -157.53537523057727
leaf_weight=470 56 68 188 1301 287 2580 458 2244 1022 337 217 370 2370 110 3646 289 593 20 36 243 624 1216 37 39 290 4981 145 132 1480 90
leaf_count=470 56 68 188 1301 287 2580 458 2244 1022 337 217 370 2370 110 3646 289 593 20 36 243 624 1216 37 39 290 4981 145 132 1480 90
internal_value=-3.85871e-08 -76.8788 10.7111 17.9577 -148.33 -5.43756 4.19467 28.0813 -52.7805 -24.0647 13.1079 -61.6137 10.8728 42.0715 20.0801 -17.213 20.5207 -1.97259 -185.58 -117.853 -18.8463 -27.9103 -194.429 -76.2804 -52.0657 6.32228 -63.3029 -86.5676 -7.56106 -131.211
internal_weight=25939 3172 22767 15715 800 7052 3879 6470 2372 558 2797 1814 9245 2354 4116 3173 2963 357 360 440 1082 1505 324 107 1312 6282 201 502 1668 333
internal_count=25939 3172 22767 15715 800 7052 3879 6470 2372 558 2797 1814 9245 2354 4116 3173 2963 357 360 440 1082 1505 324 107 1312 6282 201 502 1668 333
is_linear=0
shrinkage=0.1


Tree=29
num_leaves=31
num_cat=0
split_feature=2 2 2 2 4 0 0 4 0 0 2 2 4 0 4 4 0 0 0 4 0 4 4 0 0 0 4 2 2 4
split_gain=1.73482e+09 3.2144e+08 3.10618e+08 1.00751e+08 9.61066e+07 9.0054e+07 5.58876e+07 5.84352e+07 5.42055e+07 4.90229e+07 4.48158e+07 3.90662e+07 3.2808e+07 3.15272e+07 2.55001e+07 2.15642e+07 3.18344e+07 2.13104e+07 1.88411e+07 1.86793e+07 1.84406e+07 1.50179e+07 1.24607e+07 1.19533e+07 1.13868e+07 9.16473e+06 8.51847e+06 7.12798e+06 3.74568e+06 1.27861e+06
threshold=10943.140000000001 290.14000000000004 23964.275000000005 6905.0400000000009 0.73598909470718765 3734.7000000000003 3280.9750000000008 0.39776596179529783 7730.295000000001 6506.0950000000012 38365.220000000008 17417.950000000001 0.38506679580789255 739.92000000000019 0.48676624479132619 0.72218700307278427 3342.7600000000007 4287.2350000000015 1041.7300000000002 0.77020378397081612 1608.1150000000002 0.86193188114808206 0.41456665374903923 6731.7100000000009 1565.8100000000002 7730.295000000001 0.79230078668885684 43867.530000000006 31130.455000000005 0.88408913119490495
decision_type=2 2 2 2 2 2 2 2 2 2 2 2 2 2 2 2 2 2 2 2 2 2 2 2 2 2 2 2 2 2
left_child=1 4 9 6 5 13 18 -8 -7 11 15 20 17 -1 25 16 -4 -5 -3 -14 -2 23 -12 -6 -13 -11 -16 -24 -17 -23
right_child=2 3 10 12 21 8 7 -9 -10 14 22 24 19 -15 26 28 -18 -19 -20 -21 -22 29 27 -25 -26 -27 -28 -29 -30 -31
leaf_value=-10.585395540282081 -90.496729772231163 -35.038398719662176 -157.77159185894467 -25.119768150590307 5.0602622338991594 26.626831826944187 32.373820022281748 -0.9534597369340837 68.308278305842165 13.505152486499988 -138.89404000418526 -130.70348539352418 -29.944976246809372 13.834886305549004 -23.284918763763027 -150.31288555438704 -92.515648235994234 31.783283354568482 -11.1466140214701 -56.579501801678262 -50.79144886081869 -3.8467006514685078 -193.57021701458802 27.47962701486987 -85.30476812183268 95.821184812273302 -90.577100830078123 -250.84631173270091 -186.13175428858347 -10.789780033959284
leaf_weight=598 136 403 118 139 3040 6039 626 3297 329 38 35 64 1054 4560 76 65 204 125 1824 351 836 646 97 258 404 21 25 28 53 450
leaf_count=598 136 403 118 139 3040 6039 626 3297 329 38 35 64 1054 4560 76 65 204 125 1824 351 836 646 97 258 404 21 25 28 53 450
internal_value=-2.19271e-08 7.87282 -84.9513 -8.73124 16.0278 20.8251 -2.8178 4.36463 28.7803 -61.9412 -146.311 -67.7759 -30.5214 11.0037 -9.429 -129.831 -116.429 1.82296 -15.4701 -36.5989 -56.3469 3.44392 -191.633 6.81411 -91.5131 42.8041 -39.9414 -206.4 -166.401 -6.69742
internal_weight=25939 23739 2200 7819 15920 11526 6150 3923 6368 1600 600 1440 1669 5158 160 440 322 264 2227 1405 972 4394 160 3298 468 59 101 125 118 1096
internal_count=25939 23739 2200 7819 15920 11526 6150 3923 6368 1600 600 1440 1669 5158 160 440 322 264 2227 1405 972 4394 160 3298 468 59 101 125 118 1096
is_linear=0
shrinkage=0.1


Tree=30
num_leaves=29
num_cat=0
split_feature=2 2 2 4 0 0 0 2 0 4 0 4 0 2 4 0 4 2 0 4 0 0 4 4 0 4 4 1
split_gain=1.40883e+09 3.46957e+08 1.92537e+08 1.14066e+08 6.40939e+07 6.3375e+07 5.06205e+07 4.99031e+07 3.53915e+07 4.66843e+07 3.2945e+07 3.13856e+07 3.05073e+07 2.94974e+07 2.54287e+07 2.26024e+07 2.10619e+07 1.5831e+07 1.53836e+07 1.47943e+07 1.19767e+07 1.11892e+07 1.07136e+07 9.61912e+06 8.40347e+06 8.00535e+06 7.69922e+06 5.92008e+06
threshold=13173.745000000001 4661.0150000000003 29660.760000000006 0.42382009929839787 6933.7100000000009 5670.3600000000015 6209.2200000000003 57.13000000000001 1399.0100000000002 0.56335771258168832 5866.1550000000007 0.8477076963318817 2470.3650000000002 19478.455000000005 0.49153740955329656 6731.7100000000009 0.55644683560240671 43867.530000000006 8527.0650000000005 0.76523294430693911 1154.9650000000004 8527.0650000000005 0.4305797718117485 0.63346810760495875 7258.6550000000016 0.82092397832021391 0.81374626772154468 336.78000000000003
decision_type=2 2 2 2 2 2 2 2 2 2 2 2 2 2 2 2 2 2 2 2 2 2 2 2 2 2 2 2
left_child=1 3 10 6 8 7 12 -5 27 -10 13 -7 -1 20 24 17 21 19 -8 -4 -2 -6 -15 -17 -12 -16 -18 -3
right_child=2 4 15 5 16 11 18 -9 9 -11 14 -13 -14 22 25 23 26 -19 -20 -21 -22 -23 -24 -25 -26 -27 -28 -29
leaf_value=5.8528200917102353 -100.35258862304687 -74.367320435622645 -137.69619163265304 7.8534731641863962 40.39897971605 23.677434384960751 49.236252810654136 -6.7718536518301082 -7.774752641279175 -32.465979984996082 -11.558081742433401 -6.7020654195639757 27.057281671753152 -66.924694849033742 -48.452745650708678 -27.878435649871825 14.237045284339359 -218.11238238360431 110.83966425115412 -189.37571883940362 -57.931626347478883 114.43513512244593 -104.42789590177482 -125.95553627014161 57.205626734980832 -113.22425404424253 -36.862054522444559 -46.534938658135282
leaf_weight=905 75 116 252 10010 95 2858 515 3042 1323 1818 52 386 2711 98 112 20 105 37 44 71 591 26 342 20 27 23 41 224
leaf_count=905 75 116 252 10010 95 2858 515 3042 1323 1818 52 386 2711 98 112 20 105 37 44 71 591 26 342 20 27 23 41 224
internal_value=-3.42583e-09 6.21067 -87.4513 11.3321 -21.7617 7.55378 26.0797 4.44478 -25.3834 -22.066 -69.0336 20.0626 21.7503 -75.9828 -33.1184 -148.23 25.456 -156.154 54.0852 -149.056 -62.7088 56.3076 -96.0749 -76.917 11.9434 -59.4879 -0.112702 -56.0307
internal_weight=25939 24219 1720 20471 3748 16296 4175 13052 3481 3141 1320 3244 3616 1106 214 400 267 360 559 323 666 121 440 40 79 135 146 340
internal_count=25939 24219 1720 20471 3748 16296 4175 13052 3481 3141 1320 3244 3616 1106 214 400 267 360 559 323 666 121 440 40 79 135 146 340
is_linear=0
shrinkage=0.1


Tree=31
num_leaves=31
num_cat=0
split_feature=2 2 2 4 4 0 0 2 4 4 0 0 2 0 4 0 4 0 4 4 0 0 0 0 2 4 4 0 2 4
split_gain=1.16254e+09 3.03584e+08 1.3321e+08 7.62344e+07 5.76358e+07 5.64243e+07 5.04552e+07 4.53782e+07 4.39513e+07 3.97022e+07 3.26784e+07 3.2618e+07 2.97436e+07 2.39711e+07 2.27042e+07 1.6796e+07 1.98272e+07 1.56841e+07 1.54364e+07 1.49224e+07 1.45132e+07 1.19247e+07 1.1764e+07 1.04684e+07 9.47428e+06 9.10634e+06 6.83342e+06 3.9602e+06 2.91884e+06 2.66376e+06
threshold=7904.2100000000009 21433.885000000006 123.81000000000002 0.36864963071989293 0.82307881775527714 5374.2600000000011 7258.6550000000016 32355.485000000004 0.40236569143595297 0.74091101948751226 3579.1250000000005 1682.8650000000002 14449.580000000002 3177.3050000000007 0.3664856457674473 1900.4350000000002 0.64271084631985309 7834.5300000000007 0.4305797718117485 0.81618810951270671 3360.7600000000007 6594.7250000000013 8815.5200000000023 1446.8950000000002 2802.7600000000007 0.77542421937304951 0.78284930131344221 805.72500000000014 38365.220000000008 0.85963211438641218
decision_type=2 2 2 2 2 2 2 2 2 2 2 2 2 2 2 2 2 2 2 2 2 2 2 2 2 2 2 2 2 2
left_child=2 8 3 13 5 11 9 18 10 -5 23 -4 19 27 -7 28 -17 -12 20 -10 -3 -15 -8 -2 -6 -14 -20 -1 -9 -26
right_child=1 7 4 6 24 14 22 15 12 -11 17 -13 25 21 -16 16 -18 -19 26 -21 -22 -23 -24 -25 29 -27 -28 -29 -30 -31
leaf_value=-2.2993344225782031 -83.773233961022413 -111.83940963745118 -24.843725803683284 12.998298001525445 -14.123688826434639 48.234673187048131 32.239688041645991 -172.10907084147138 -32.687493038097919 1.1004021401386959 4.3033942800998686 -1.6868150337876804 -56.055726118742058 36.868493432825964 12.156664721502199 -104.97349908141052 -158.80461213588717 92.37449562766335 -91.565084989447357 -60.377271485431891 -30.725291096324653 65.177111345563617 69.970454123585498 -29.326554419217928 -27.667612019214001 -83.726503995098653 -123.75088716295032 20.041252551425416 -223.15910034179689 -41.430879787576615
leaf_weight=94 46 32 726 9266 368 202 558 24 1236 4022 250 3751 481 994 1278 147 128 22 247 231 71 175 97 152 273 158 90 509 21 290
leaf_count=94 46 32 726 9266 368 202 558 24 1236 4022 250 3751 481 994 1278 147 128 22 247 231 71 175 97 152 273 158 90 509 21 290
internal_value=-1.1533e-08 -55.1059 8.13313 13.2156 -3.46253 0.153741 10.7326 -110.644 -38.7203 9.39705 -11.0705 -5.44199 -44.891 32.7529 17.0808 -139.297 -130.029 11.4268 -89.8057 -37.0476 -55.9258 41.1063 37.8273 -41.9758 -26.6012 -62.8976 -100.161 16.5586 -195.932 -34.757
internal_weight=25939 3336 22603 15715 6888 5957 13943 760 2576 13288 470 4477 2106 1772 1480 320 275 272 440 1467 103 1169 655 198 931 639 337 603 45 563
internal_count=25939 3336 22603 15715 6888 5957 13943 760 2576 13288 470 4477 2106 1772 1480 320 275 272 440 1467 103 1169 655 198 931 639 337 603 45 563
is_linear=0
shrinkage=0.1


Tree=32
num_leaves=31
num_cat=0
split_feature=2 2 4 0 2 0 0 2 4 4 4 0 0 4 2 0 0 0 4 0 0 4 0 0 0 4 2 2 4 4
split_gain=9.47766e+08 2.6477e+08 1.01036e+08 7.71156e+07 6.98643e+07 4.65153e+07 4.43522e+07 4.05012e+07 3.86194e+07 3.00454e+07 2.88723e+07 3.58422e+07 2.52889e+07 2.84876e+07 1.99431e+07 1.95616e+07 1.80611e+07 1.7095e+07 1.48963e+07 1.46882e+07 1.24052e+07 1.23007e+07 1.38149e+07 1.15606e+07 1.14025e+07 5.69907e+06 5.49405e+06 4.10127e+06 3.91945e+06 1.15164e+06
threshold=7292.2600000000011 20850.625000000004 0.55865699679288705 2695.7250000000008 3030.2700000000004 5757.0850000000009 7413.3500000000013 29660.760000000006 0.35116087693925957 0.68275689346204438 0.83877675229137261 3424.7950000000005 1446.8950000000002 0.66599389804042997 1956.1400000000001 7962.1050000000005 7196.8600000000006 9329.0250000000015 0.83877675229137261 6086.8250000000007 1682.8650000000002 0.47741906481812474 2362.6450000000004 677.17000000000019 1041.7300000000002 0.82092397832021391 11898.610000000002 878.98500000000013 0.84341349960731427 0.87532054593079922
decision_type=2 2 2 2 2 2 2 2 2 2 2 2 2 2 2 2 2 2 2 2 2 2 2 2 2 2 2 2 2 2
left_child=2 5 3 14 10 12 8 21 -5 15 11 -4 26 -14 23 -7 20 -8 19 -6 -9 22 -3 -1 -16 -11 -2 -12 -23 -20
right_child=1 7 4 6 18 9 17 16 -10 25 27 -13 13 -15 24 -17 -18 -19 29 -21 -22 28 -24 -25 -26 -27 -28 -29 -30 -31
leaf_value=-11.642436447494767 -53.8125480220003 -117.23251538085938 -0.47965625008073148 34.059016798235099 -14.969899287536187 1.0210988406836987 48.337020204332141 -178.10547753310786 15.129421536415457 -25.205665302658083 -4.0599645432880962 12.616722464887125 -25.728901675227441 -50.232358363771318 -41.921550236695204 70.762244508577439 -41.514183842694322 133.85233764648439 -28.885354130024815 12.338604858439902 -119.8019756867225 -83.29508764049676 -34.593158185706947 8.3661248678746443 -8.1121713140711762 -59.930343937873843 -81.082627116769984 -18.070643820138923 -120.58055877685547 -40.307179509038512
leaf_weight=353 159 25 3394 1353 1371 320 360 41 5298 125 1764 5438 1226 774 141 46 27 25 245 230 332 237 106 1587 341 76 138 237 32 138
leaf_count=353 159 25 3394 1353 1371 320 360 41 5298 125 1764 5438 1226 774 141 46 27 25 245 230 332 237 106 1587 341 76 138 237 32 138
internal_value=-3.05697e-08 -47.1308 7.75252 15.5926 1.96708 -32.9234 20.8904 -97.9933 18.9802 -7.27266 5.12667 7.58399 -39.2551 -35.2117 0.202341 9.78638 -120.494 53.89 -15.2849 -11.0468 -126.211 -75.493 -50.364 4.72539 -18.0025 -38.3354 -66.4835 -5.7194 -87.7305 -33.0008
internal_weight=25939 3664 22275 9458 12817 2864 7036 800 6651 567 10833 8832 2297 2000 2422 366 400 385 1984 1601 373 400 131 1940 482 201 297 2001 269 383
internal_count=25939 3664 22275 9458 12817 2864 7036 800 6651 567 10833 8832 2297 2000 2422 366 400 385 1984 1601 373 400 131 1940 482 201 297 2001 269 383
is_linear=0
shrinkage=0.1


Tree=33
num_leaves=29
num_cat=0
split_feature=2 2 2 0 4 0 4 0 0 4 4 2 0 2 4 2 0 4 4 0 0 1 4 0 1 4 4 4
split_gain=7.72926e+08 1.51091e+08 1.31664e+08 5.38633e+07 5.27585e+07 4.47197e+07 3.70043e+07 4.03617e+07 3.45169e+07 3.10594e+07 3.03534e+07 2.42548e+07 1.90937e+07 1.80177e+07 1.76454e+07 1.55196e+07 1.45471e+07 1.29621e+07 1.12744e+07 9.21845e+06 8.74281e+06 8.70594e+06 8.54076e+06 7.41968e+06 6.24955e+06 4.89864e+06 3.16455e+06 482155
threshold=10022.195000000002 26719.825000000004 319.56000000000006 2260.4600000000005 0.65644457897477737 7332.0950000000003 0.74572215318997426 1900.4350000000002 4822.3950000000013 0.34218589650479903 0.5782324115789671 17417.950000000001 7196.8600000000006 2930.5700000000002 0.86193188114808206 36485.270000000011 8094.4000000000005 0.65408501406861208 0.7856792642376772 677.17000000000019 2390.5000000000005 732.70000000000016 0.73176881546903294 8815.5200000000023 368.18000000000006 0.69197197742671113 0.83636823720113318 0.82750946770681655
decision_type=2 2 2 2 2 2 2 2 2 2 2 2 2 2 2 2 2 2 2 2 2 2 2 2 2 2 2 2
left_child=2 8 3 19 9 6 7 -4 11 -5 16 20 15 -8 -6 21 -10 23 -12 27 -2 -3 -17 -7 -13 -21 -19 -1
right_child=1 12 5 4 14 17 13 -9 10 -11 18 24 -14 -15 -16 22 -18 26 -20 25 -22 -23 -24 -25 -26 -27 -28 -29
leaf_value=-11.910379550110077 -55.04810097387282 -150.27567214965822 -23.555485594384795 36.311169671536021 8.4804024084817193 37.594532245799812 -5.9758846845306941 0.85425130019396045 -5.8676584339141851 16.542246880124146 -30.275896636086209 -116.33285319010417 -28.848830008506777 -26.671838599084495 -6.9569190414367101 -116.79921445739001 78.426182764226738 16.241931808504287 -68.547219470509319 5.3006105751755674 -34.045363316295166 -87.046412586658562 -163.35346336364748 88.950691582174869 -66.648069157330269 -4.4197511143627626 -16.340444195270539 -4.4805891291929951
leaf_weight=646 295 24 797 901 4406 163 654 4514 295 6739 237 27 32 1179 890 133 22 117 114 1480 604 235 56 34 406 798 40 101
leaf_count=646 295 24 797 901 4406 163 654 4514 295 6739 237 27 32 1179 890 133 22 117 114 1480 604 235 56 34 406 798 40 101
internal_value=-1.49651e-08 -53.0911 5.61259 10.7474 13.5566 -5.31782 -7.03695 -2.80882 -40.999 18.8736 -22.4481 -50.3023 -103.475 -19.2877 5.88614 -108.805 -0.0176127 29.3755 -42.7059 -1.26569 -40.9373 -92.9055 -130.593 46.458 -69.7462 1.8955 7.94069 -10.9058
internal_weight=25939 2480 23459 15961 12936 7498 7144 5311 2000 7640 668 1332 480 1833 5296 448 317 354 351 3025 899 259 189 197 433 2278 157 747
internal_count=25939 2480 23459 15961 12936 7498 7144 5311 2000 7640 668 1332 480 1833 5296 448 317 354 351 3025 899 259 189 197 433 2278 157 747
is_linear=0
shrinkage=0.1


Tree=34
num_leaves=31
num_cat=0
split_feature=2 2 0 2 4 0 0 2 4 4 1 4 4 0 4 0 0 4 0 0 0 0 4 4 4 4 4 1 2 3
split_gain=6.358e+08 1.74016e+08 7.62308e+07 5.25046e+07 4.24418e+07 3.38775e+07 2.89881e+07 2.79932e+07 2.50777e+07 2.43209e+07 1.92814e+07 2.58439e+07 1.82104e+07 1.56403e+07 1.47539e+07 1.94497e+07 1.40276e+07 1.8108e+07 1.17357e+07 1.10029e+07 9.76818e+06 9.73156e+06 1.15245e+07 6.34375e+06 4.65512e+06 4.52716e+06 4.49699e+06 3.82521e+06 3.65753e+06 1.95496e+06
threshold=7292.2600000000011 20850.625000000004 5301.045000000001 911.49500000000012 0.3664856457674473 6086.8250000000007 8094.4000000000005 36485.270000000011 0.46304731035031471 0.84072774673425066 651.92500000000007 0.52576122230861888 0.66599389804042997 1644.1250000000002 0.54765782903293736 3674.3950000000004 1092.8400000000004 0.73389343165560195 8527.0650000000005 8094.4000000000005 1154.9650000000004 3444.3400000000006 0.64271084631985309 0.78024007414771235 0.81859693886117946 0.84538144099185619 0.32813099768894566 296.91000000000008 3147.7600000000007 212529.56000000003
decision_type=2 2 2 2 2 2 2 2 2 2 2 2 2 2 2 2 2 2 2 2 2 2 2 2 2 2 2 2 2 2
left_child=2 5 3 8 18 10 9 14 20 -6 27 -12 19 -10 15 -3 28 -18 26 -7 -1 29 -23 -8 -16 -14 -4 -2 -5 -9
right_child=1 7 4 16 6 12 23 21 13 -11 11 -13 25 -15 24 -17 17 -19 -20 -21 -22 22 -24 -25 -26 -27 -28 -29 -30 -31
leaf_value=-1.7904790439284763 -76.442548950195317 -84.2881221477802 47.444641799141067 -12.749160071760416 13.815757865734808 7.1847814742608795 49.313030073482537 -151.38406734826432 -6.1377169590906746 -8.560994640339505 -13.928872147361597 -36.692907043513955 -17.015239987486886 5.2814887244703916 -76.394996178016228 -28.240001299178683 -0.41186280656979357 -15.555317288679888 100.76646826959427 66.746319707234704 15.574982125593195 -67.89415639932605 -128.36904333706559 19.874297074206826 -104.44611031381709 -54.273759911277082 30.015292857096529 -49.669503172797128 -32.235905273689717 -114.69152614593507
leaf_weight=364 75 104 264 160 4156 224 253 53 1423 550 775 1399 126 7634 267 153 2700 1116 31 36 2942 69 58 103 76 44 337 185 242 20
leaf_count=364 75 104 264 160 4156 224 253 53 1423 550 775 1399 126 7634 267 153 2700 1116 31 36 2942 69 58 103 76 44 337 185 242 20
